digraph Tree {
node [shape=box, style="filled, rounded", color="black", fontname="helvetica"] ;
edge [fontname="helvetica"] ;
0 [label="PlanetaryRadiusUpperUnc.[Earthradii] <= 2.31\ngini = 0.5\nsamples = 4443\nvalue = [3440, 3555]\nclass = Candidate", fillcolor="#f9fcfe"] ;
1 [label="StellarEffectiveTemperatureLowerUnc.[K] <= -136.5\ngini = 0.45\nsamples = 3297\nvalue = [1770, 3396]\nclass = Candidate", fillcolor="#a0d0f3"] ;
0 -> 1 [labeldistance=2.5, labelangle=45, headlabel="True"] ;
2 [label="EquilibriumTemperature[K <= 1296.5\ngini = 0.5\nsamples = 1946\nvalue = [1501, 1552]\nclass = Candidate", fillcolor="#f8fcfe"] ;
1 -> 2 ;
3 [label="OrbitalPeriodLowerUnc.[days] <= -0.0\ngini = 0.47\nsamples = 1414\nvalue = [834, 1410]\nclass = Candidate", fillcolor="#aed7f4"] ;
2 -> 3 ;
4 [label="OrbitalPeriodLowerUnc.[days] <= -0.01\ngini = 0.5\nsamples = 384\nvalue = [319, 271]\nclass = Not Candidate", fillcolor="#fbece1"] ;
3 -> 4 ;
5 [label="TransitDurationUpperUnc.[hrs] <= 1.25\ngini = 0.47\nsamples = 190\nvalue = [184, 110]\nclass = Not Candidate", fillcolor="#f5ccaf"] ;
4 -> 5 ;
6 [label="PlanetaryRadius[Earthradii] <= 2.55\ngini = 0.38\nsamples = 85\nvalue = [105, 35]\nclass = Not Candidate", fillcolor="#eeab7b"] ;
5 -> 6 ;
7 [label="PlanetaryRadiusLowerUnc.[Earthradii] <= -0.15\ngini = 0.28\nsamples = 58\nvalue = [84, 17]\nclass = Not Candidate", fillcolor="#ea9a61"] ;
6 -> 7 ;
8 [label="TransitEpoch[BKJD] <= 386.0\ngini = 0.19\nsamples = 45\nvalue = [78, 9]\nclass = Not Candidate", fillcolor="#e89050"] ;
7 -> 8 ;
9 [label="RA[decimaldegrees] <= 293.98\ngini = 0.1\nsamples = 37\nvalue = [71, 4]\nclass = Not Candidate", fillcolor="#e68844"] ;
8 -> 9 ;
10 [label="OrbitalPeriod[days] <= 296.88\ngini = 0.06\nsamples = 31\nvalue = [65, 2]\nclass = Not Candidate", fillcolor="#e6853f"] ;
9 -> 10 ;
11 [label="Kepler-band[mag] <= 14.84\ngini = 0.5\nsamples = 2\nvalue = [1, 1]\nclass = Not Candidate", fillcolor="#ffffff"] ;
10 -> 11 ;
12 [label="gini = 0.0\nsamples = 1\nvalue = [1, 0]\nclass = Not Candidate", fillcolor="#e58139"] ;
11 -> 12 ;
13 [label="gini = 0.0\nsamples = 1\nvalue = [0, 1]\nclass = Candidate", fillcolor="#399de5"] ;
11 -> 13 ;
14 [label="TransitEpochUpperUnc.[BKJD] <= 0.04\ngini = 0.03\nsamples = 29\nvalue = [64, 1]\nclass = Not Candidate", fillcolor="#e5833c"] ;
10 -> 14 ;
15 [label="gini = 0.0\nsamples = 26\nvalue = [59, 0]\nclass = Not Candidate", fillcolor="#e58139"] ;
14 -> 15 ;
16 [label="InsolationFluxLowerUnc.[Earthflux] <= -0.19\ngini = 0.28\nsamples = 3\nvalue = [5, 1]\nclass = Not Candidate", fillcolor="#ea9a61"] ;
14 -> 16 ;
17 [label="gini = 0.0\nsamples = 2\nvalue = [5, 0]\nclass = Not Candidate", fillcolor="#e58139"] ;
16 -> 17 ;
18 [label="gini = 0.0\nsamples = 1\nvalue = [0, 1]\nclass = Candidate", fillcolor="#399de5"] ;
16 -> 18 ;
19 [label="TransitSignal-to-Noise <= 11.15\ngini = 0.38\nsamples = 6\nvalue = [6, 2]\nclass = Not Candidate", fillcolor="#eeab7b"] ;
9 -> 19 ;
20 [label="PlanetaryRadiusLowerUnc.[Earthradii] <= -0.2\ngini = 0.44\nsamples = 3\nvalue = [1, 2]\nclass = Candidate", fillcolor="#9ccef2"] ;
19 -> 20 ;
21 [label="gini = 0.0\nsamples = 2\nvalue = [0, 2]\nclass = Candidate", fillcolor="#399de5"] ;
20 -> 21 ;
22 [label="gini = 0.0\nsamples = 1\nvalue = [1, 0]\nclass = Not Candidate", fillcolor="#e58139"] ;
20 -> 22 ;
23 [label="gini = 0.0\nsamples = 3\nvalue = [5, 0]\nclass = Not Candidate", fillcolor="#e58139"] ;
19 -> 23 ;
24 [label="StellarSurfaceGravity[log10(cm/s**2)] <= 4.5\ngini = 0.49\nsamples = 8\nvalue = [7, 5]\nclass = Not Candidate", fillcolor="#f8dbc6"] ;
8 -> 24 ;
25 [label="ImpactParameter <= 0.13\ngini = 0.41\nsamples = 5\nvalue = [2, 5]\nclass = Candidate", fillcolor="#88c4ef"] ;
24 -> 25 ;
26 [label="gini = 0.0\nsamples = 2\nvalue = [2, 0]\nclass = Not Candidate", fillcolor="#e58139"] ;
25 -> 26 ;
27 [label="gini = 0.0\nsamples = 3\nvalue = [0, 5]\nclass = Candidate", fillcolor="#399de5"] ;
25 -> 27 ;
28 [label="gini = 0.0\nsamples = 3\nvalue = [5, 0]\nclass = Not Candidate", fillcolor="#e58139"] ;
24 -> 28 ;
29 [label="StellarSurfaceGravityLowerUnc.[log10(cm/s**2)] <= -0.18\ngini = 0.49\nsamples = 13\nvalue = [6, 8]\nclass = Candidate", fillcolor="#cee6f8"] ;
7 -> 29 ;
30 [label="TransitDurationLowerUnc.[hrs] <= -0.7\ngini = 0.2\nsamples = 9\nvalue = [1, 8]\nclass = Candidate", fillcolor="#52a9e8"] ;
29 -> 30 ;
31 [label="gini = 0.0\nsamples = 8\nvalue = [0, 8]\nclass = Candidate", fillcolor="#399de5"] ;
30 -> 31 ;
32 [label="gini = 0.0\nsamples = 1\nvalue = [1, 0]\nclass = Not Candidate", fillcolor="#e58139"] ;
30 -> 32 ;
33 [label="gini = 0.0\nsamples = 4\nvalue = [5, 0]\nclass = Not Candidate", fillcolor="#e58139"] ;
29 -> 33 ;
34 [label="TransitEpoch[BKJD] <= 519.72\ngini = 0.5\nsamples = 27\nvalue = [21, 18]\nclass = Not Candidate", fillcolor="#fbede3"] ;
6 -> 34 ;
35 [label="TransitDuration[hrs] <= 12.46\ngini = 0.47\nsamples = 25\nvalue = [21, 13]\nclass = Not Candidate", fillcolor="#f5cfb4"] ;
34 -> 35 ;
36 [label="OrbitalPeriodUpperUnc.[days] <= 0.02\ngini = 0.48\nsamples = 17\nvalue = [9, 13]\nclass = Candidate", fillcolor="#c2e1f7"] ;
35 -> 36 ;
37 [label="InsolationFlux[Earthflux] <= 2.98\ngini = 0.48\nsamples = 12\nvalue = [9, 6]\nclass = Not Candidate", fillcolor="#f6d5bd"] ;
36 -> 37 ;
38 [label="PlanetaryRadius[Earthradii] <= 2.94\ngini = 0.48\nsamples = 8\nvalue = [4, 6]\nclass = Candidate", fillcolor="#bddef6"] ;
37 -> 38 ;
39 [label="TransitDurationLowerUnc.[hrs] <= -0.63\ngini = 0.44\nsamples = 4\nvalue = [4, 2]\nclass = Not Candidate", fillcolor="#f2c09c"] ;
38 -> 39 ;
40 [label="gini = 0.0\nsamples = 3\nvalue = [4, 0]\nclass = Not Candidate", fillcolor="#e58139"] ;
39 -> 40 ;
41 [label="gini = 0.0\nsamples = 1\nvalue = [0, 2]\nclass = Candidate", fillcolor="#399de5"] ;
39 -> 41 ;
42 [label="gini = 0.0\nsamples = 4\nvalue = [0, 4]\nclass = Candidate", fillcolor="#399de5"] ;
38 -> 42 ;
43 [label="gini = 0.0\nsamples = 4\nvalue = [5, 0]\nclass = Not Candidate", fillcolor="#e58139"] ;
37 -> 43 ;
44 [label="gini = 0.0\nsamples = 5\nvalue = [0, 7]\nclass = Candidate", fillcolor="#399de5"] ;
36 -> 44 ;
45 [label="gini = 0.0\nsamples = 8\nvalue = [12, 0]\nclass = Not Candidate", fillcolor="#e58139"] ;
35 -> 45 ;
46 [label="gini = 0.0\nsamples = 2\nvalue = [0, 5]\nclass = Candidate", fillcolor="#399de5"] ;
34 -> 46 ;
47 [label="StellarRadiusLowerUnc.[Solarradii] <= -0.08\ngini = 0.5\nsamples = 105\nvalue = [79, 75]\nclass = Not Candidate", fillcolor="#fef9f5"] ;
5 -> 47 ;
48 [label="Kepler-band[mag] <= 12.67\ngini = 0.48\nsamples = 73\nvalue = [66, 44]\nclass = Not Candidate", fillcolor="#f6d5bd"] ;
47 -> 48 ;
49 [label="TransitEpoch[BKJD] <= 156.05\ngini = 0.28\nsamples = 7\nvalue = [2, 10]\nclass = Candidate", fillcolor="#61b1ea"] ;
48 -> 49 ;
50 [label="gini = 0.0\nsamples = 1\nvalue = [1, 0]\nclass = Not Candidate", fillcolor="#e58139"] ;
49 -> 50 ;
51 [label="ImpactParameterLowerUnc <= -0.04\ngini = 0.17\nsamples = 6\nvalue = [1, 10]\nclass = Candidate", fillcolor="#4da7e8"] ;
49 -> 51 ;
52 [label="gini = 0.0\nsamples = 5\nvalue = [0, 10]\nclass = Candidate", fillcolor="#399de5"] ;
51 -> 52 ;
53 [label="gini = 0.0\nsamples = 1\nvalue = [1, 0]\nclass = Not Candidate", fillcolor="#e58139"] ;
51 -> 53 ;
54 [label="RA[decimaldegrees] <= 283.54\ngini = 0.45\nsamples = 66\nvalue = [64, 34]\nclass = Not Candidate", fillcolor="#f3c4a2"] ;
48 -> 54 ;
55 [label="EquilibriumTemperature[K <= 251.5\ngini = 0.22\nsamples = 3\nvalue = [1, 7]\nclass = Candidate", fillcolor="#55abe9"] ;
54 -> 55 ;
56 [label="gini = 0.0\nsamples = 1\nvalue = [1, 0]\nclass = Not Candidate", fillcolor="#e58139"] ;
55 -> 56 ;
57 [label="gini = 0.0\nsamples = 2\nvalue = [0, 7]\nclass = Candidate", fillcolor="#399de5"] ;
55 -> 57 ;
58 [label="ImpactParameter <= 0.51\ngini = 0.42\nsamples = 63\nvalue = [63, 27]\nclass = Not Candidate", fillcolor="#f0b78e"] ;
54 -> 58 ;
59 [label="TransitDurationLowerUnc.[hrs] <= -4.5\ngini = 0.31\nsamples = 42\nvalue = [47, 11]\nclass = Not Candidate", fillcolor="#eb9e67"] ;
58 -> 59 ;
60 [label="gini = 0.0\nsamples = 2\nvalue = [0, 3]\nclass = Candidate", fillcolor="#399de5"] ;
59 -> 60 ;
61 [label="StellarEffectiveTemperature[K] <= 6295.5\ngini = 0.25\nsamples = 40\nvalue = [47, 8]\nclass = Not Candidate", fillcolor="#e9965b"] ;
59 -> 61 ;
62 [label="PlanetaryRadiusUpperUnc.[Earthradii] <= 1.0\ngini = 0.14\nsamples = 30\nvalue = [38, 3]\nclass = Not Candidate", fillcolor="#e78b49"] ;
61 -> 62 ;
63 [label="ImpactParameter <= 0.0\ngini = 0.07\nsamples = 21\nvalue = [28, 1]\nclass = Not Candidate", fillcolor="#e68640"] ;
62 -> 63 ;
64 [label="gini = 0.0\nsamples = 1\nvalue = [0, 1]\nclass = Candidate", fillcolor="#399de5"] ;
63 -> 64 ;
65 [label="gini = 0.0\nsamples = 20\nvalue = [28, 0]\nclass = Not Candidate", fillcolor="#e58139"] ;
63 -> 65 ;
66 [label="StellarRadius[Solarradii] <= 0.97\ngini = 0.28\nsamples = 9\nvalue = [10, 2]\nclass = Not Candidate", fillcolor="#ea9a61"] ;
62 -> 66 ;
67 [label="gini = 0.0\nsamples = 1\nvalue = [0, 1]\nclass = Candidate", fillcolor="#399de5"] ;
66 -> 67 ;
68 [label="RA[decimaldegrees] <= 289.25\ngini = 0.17\nsamples = 8\nvalue = [10, 1]\nclass = Not Candidate", fillcolor="#e88e4d"] ;
66 -> 68 ;
69 [label="TransitDuration[hrs] <= 15.47\ngini = 0.5\nsamples = 2\nvalue = [1, 1]\nclass = Not Candidate", fillcolor="#ffffff"] ;
68 -> 69 ;
70 [label="gini = 0.0\nsamples = 1\nvalue = [0, 1]\nclass = Candidate", fillcolor="#399de5"] ;
69 -> 70 ;
71 [label="gini = 0.0\nsamples = 1\nvalue = [1, 0]\nclass = Not Candidate", fillcolor="#e58139"] ;
69 -> 71 ;
72 [label="gini = 0.0\nsamples = 6\nvalue = [9, 0]\nclass = Not Candidate", fillcolor="#e58139"] ;
68 -> 72 ;
73 [label="StellarEffectiveTemperature[K] <= 6571.0\ngini = 0.46\nsamples = 10\nvalue = [9, 5]\nclass = Not Candidate", fillcolor="#f3c7a7"] ;
61 -> 73 ;
74 [label="OrbitalPeriod[days] <= 492.26\ngini = 0.28\nsamples = 4\nvalue = [1, 5]\nclass = Candidate", fillcolor="#61b1ea"] ;
73 -> 74 ;
75 [label="gini = 0.0\nsamples = 3\nvalue = [0, 5]\nclass = Candidate", fillcolor="#399de5"] ;
74 -> 75 ;
76 [label="gini = 0.0\nsamples = 1\nvalue = [1, 0]\nclass = Not Candidate", fillcolor="#e58139"] ;
74 -> 76 ;
77 [label="gini = 0.0\nsamples = 6\nvalue = [8, 0]\nclass = Not Candidate", fillcolor="#e58139"] ;
73 -> 77 ;
78 [label="StellarEffectiveTemperatureUpperUnc.[K] <= 167.0\ngini = 0.5\nsamples = 21\nvalue = [16, 16]\nclass = Not Candidate", fillcolor="#ffffff"] ;
58 -> 78 ;
79 [label="ImpactParameterUpperUnc <= 0.01\ngini = 0.39\nsamples = 12\nvalue = [14, 5]\nclass = Not Candidate", fillcolor="#eeae80"] ;
78 -> 79 ;
80 [label="gini = 0.0\nsamples = 3\nvalue = [0, 3]\nclass = Candidate", fillcolor="#399de5"] ;
79 -> 80 ;
81 [label="TransitEpoch[BKJD] <= 338.65\ngini = 0.22\nsamples = 9\nvalue = [14, 2]\nclass = Not Candidate", fillcolor="#e99355"] ;
79 -> 81 ;
82 [label="gini = 0.0\nsamples = 7\nvalue = [14, 0]\nclass = Not Candidate", fillcolor="#e58139"] ;
81 -> 82 ;
83 [label="gini = 0.0\nsamples = 2\nvalue = [0, 2]\nclass = Candidate", fillcolor="#399de5"] ;
81 -> 83 ;
84 [label="InsolationFluxUpperUnc.[Earthflux] <= 3.37\ngini = 0.26\nsamples = 9\nvalue = [2, 11]\nclass = Candidate", fillcolor="#5dafea"] ;
78 -> 84 ;
85 [label="TransitDurationUpperUnc.[hrs] <= 1.35\ngini = 0.15\nsamples = 8\nvalue = [1, 11]\nclass = Candidate", fillcolor="#4ba6e7"] ;
84 -> 85 ;
86 [label="ImpactParameterLowerUnc <= -0.55\ngini = 0.5\nsamples = 2\nvalue = [1, 1]\nclass = Not Candidate", fillcolor="#ffffff"] ;
85 -> 86 ;
87 [label="gini = 0.0\nsamples = 1\nvalue = [1, 0]\nclass = Not Candidate", fillcolor="#e58139"] ;
86 -> 87 ;
88 [label="gini = 0.0\nsamples = 1\nvalue = [0, 1]\nclass = Candidate", fillcolor="#399de5"] ;
86 -> 88 ;
89 [label="gini = 0.0\nsamples = 6\nvalue = [0, 10]\nclass = Candidate", fillcolor="#399de5"] ;
85 -> 89 ;
90 [label="gini = 0.0\nsamples = 1\nvalue = [1, 0]\nclass = Not Candidate", fillcolor="#e58139"] ;
84 -> 90 ;
91 [label="Dec[decimaldegrees] <= 43.59\ngini = 0.42\nsamples = 32\nvalue = [13, 31]\nclass = Candidate", fillcolor="#8cc6f0"] ;
47 -> 91 ;
92 [label="StellarEffectiveTemperature[K] <= 5722.5\ngini = 0.49\nsamples = 15\nvalue = [10, 8]\nclass = Not Candidate", fillcolor="#fae6d7"] ;
91 -> 92 ;
93 [label="TransitDurationLowerUnc.[hrs] <= -1.4\ngini = 0.28\nsamples = 10\nvalue = [10, 2]\nclass = Not Candidate", fillcolor="#ea9a61"] ;
92 -> 93 ;
94 [label="gini = 0.0\nsamples = 7\nvalue = [8, 0]\nclass = Not Candidate", fillcolor="#e58139"] ;
93 -> 94 ;
95 [label="EquilibriumTemperature[K <= 204.5\ngini = 0.5\nsamples = 3\nvalue = [2, 2]\nclass = Not Candidate", fillcolor="#ffffff"] ;
93 -> 95 ;
96 [label="gini = 0.0\nsamples = 2\nvalue = [2, 0]\nclass = Not Candidate", fillcolor="#e58139"] ;
95 -> 96 ;
97 [label="gini = 0.0\nsamples = 1\nvalue = [0, 2]\nclass = Candidate", fillcolor="#399de5"] ;
95 -> 97 ;
98 [label="gini = 0.0\nsamples = 5\nvalue = [0, 6]\nclass = Candidate", fillcolor="#399de5"] ;
92 -> 98 ;
99 [label="TCEPlanetNumber <= 2.5\ngini = 0.2\nsamples = 17\nvalue = [3, 23]\nclass = Candidate", fillcolor="#53aae8"] ;
91 -> 99 ;
100 [label="StellarRadiusUpperUnc.[Solarradii] <= 0.15\ngini = 0.08\nsamples = 15\nvalue = [1, 23]\nclass = Candidate", fillcolor="#42a1e6"] ;
99 -> 100 ;
101 [label="TransitDurationUpperUnc.[hrs] <= 1.55\ngini = 0.38\nsamples = 3\nvalue = [1, 3]\nclass = Candidate", fillcolor="#7bbeee"] ;
100 -> 101 ;
102 [label="gini = 0.0\nsamples = 2\nvalue = [0, 3]\nclass = Candidate", fillcolor="#399de5"] ;
101 -> 102 ;
103 [label="gini = 0.0\nsamples = 1\nvalue = [1, 0]\nclass = Not Candidate", fillcolor="#e58139"] ;
101 -> 103 ;
104 [label="gini = 0.0\nsamples = 12\nvalue = [0, 20]\nclass = Candidate", fillcolor="#399de5"] ;
100 -> 104 ;
105 [label="gini = 0.0\nsamples = 2\nvalue = [2, 0]\nclass = Not Candidate", fillcolor="#e58139"] ;
99 -> 105 ;
106 [label="StellarSurfaceGravityLowerUnc.[log10(cm/s**2)] <= -0.28\ngini = 0.5\nsamples = 194\nvalue = [135, 161]\nclass = Candidate", fillcolor="#dfeffb"] ;
4 -> 106 ;
107 [label="TransitSignal-to-Noise <= 6.45\ngini = 0.31\nsamples = 43\nvalue = [12, 50]\nclass = Candidate", fillcolor="#69b5eb"] ;
106 -> 107 ;
108 [label="TransitEpochUpperUnc.[BKJD] <= 0.01\ngini = 0.48\nsamples = 12\nvalue = [7, 11]\nclass = Candidate", fillcolor="#b7dbf6"] ;
107 -> 108 ;
109 [label="StellarSurfaceGravity[log10(cm/s**2)] <= 4.53\ngini = 0.35\nsamples = 6\nvalue = [7, 2]\nclass = Not Candidate", fillcolor="#eca572"] ;
108 -> 109 ;
110 [label="gini = 0.0\nsamples = 5\nvalue = [7, 0]\nclass = Not Candidate", fillcolor="#e58139"] ;
109 -> 110 ;
111 [label="gini = 0.0\nsamples = 1\nvalue = [0, 2]\nclass = Candidate", fillcolor="#399de5"] ;
109 -> 111 ;
112 [label="gini = 0.0\nsamples = 6\nvalue = [0, 9]\nclass = Candidate", fillcolor="#399de5"] ;
108 -> 112 ;
113 [label="TransitDepthLowerUnc.[ppm] <= -14.5\ngini = 0.2\nsamples = 31\nvalue = [5, 39]\nclass = Candidate", fillcolor="#52aae8"] ;
107 -> 113 ;
114 [label="RA[decimaldegrees] <= 297.4\ngini = 0.14\nsamples = 28\nvalue = [3, 37]\nclass = Candidate", fillcolor="#49a5e7"] ;
113 -> 114 ;
115 [label="PlanetaryRadius[Earthradii] <= 1.5\ngini = 0.06\nsamples = 25\nvalue = [1, 34]\nclass = Candidate", fillcolor="#3fa0e6"] ;
114 -> 115 ;
116 [label="InsolationFluxLowerUnc.[Earthflux] <= -0.81\ngini = 0.44\nsamples = 3\nvalue = [1, 2]\nclass = Candidate", fillcolor="#9ccef2"] ;
115 -> 116 ;
117 [label="gini = 0.0\nsamples = 2\nvalue = [0, 2]\nclass = Candidate", fillcolor="#399de5"] ;
116 -> 117 ;
118 [label="gini = 0.0\nsamples = 1\nvalue = [1, 0]\nclass = Not Candidate", fillcolor="#e58139"] ;
116 -> 118 ;
119 [label="gini = 0.0\nsamples = 22\nvalue = [0, 32]\nclass = Candidate", fillcolor="#399de5"] ;
115 -> 119 ;
120 [label="TransitDurationLowerUnc.[hrs] <= -0.77\ngini = 0.48\nsamples = 3\nvalue = [2, 3]\nclass = Candidate", fillcolor="#bddef6"] ;
114 -> 120 ;
121 [label="gini = 0.0\nsamples = 1\nvalue = [2, 0]\nclass = Not Candidate", fillcolor="#e58139"] ;
120 -> 121 ;
122 [label="gini = 0.0\nsamples = 2\nvalue = [0, 3]\nclass = Candidate", fillcolor="#399de5"] ;
120 -> 122 ;
123 [label="StellarEffectiveTemperature[K] <= 6030.0\ngini = 0.5\nsamples = 3\nvalue = [2, 2]\nclass = Not Candidate", fillcolor="#ffffff"] ;
113 -> 123 ;
124 [label="gini = 0.0\nsamples = 1\nvalue = [2, 0]\nclass = Not Candidate", fillcolor="#e58139"] ;
123 -> 124 ;
125 [label="gini = 0.0\nsamples = 2\nvalue = [0, 2]\nclass = Candidate", fillcolor="#399de5"] ;
123 -> 125 ;
126 [label="InsolationFluxLowerUnc.[Earthflux] <= -0.13\ngini = 0.5\nsamples = 151\nvalue = [123, 111]\nclass = Not Candidate", fillcolor="#fcf3ec"] ;
106 -> 126 ;
127 [label="TransitEpochUpperUnc.[BKJD] <= 0.03\ngini = 0.49\nsamples = 134\nvalue = [117, 88]\nclass = Not Candidate", fillcolor="#f9e0ce"] ;
126 -> 127 ;
128 [label="Dec[decimaldegrees] <= 45.06\ngini = 0.46\nsamples = 93\nvalue = [93, 52]\nclass = Not Candidate", fillcolor="#f4c7a8"] ;
127 -> 128 ;
129 [label="TransitDepth[ppm] <= 118.0\ngini = 0.4\nsamples = 59\nvalue = [72, 27]\nclass = Not Candidate", fillcolor="#efb083"] ;
128 -> 129 ;
130 [label="gini = 0.0\nsamples = 2\nvalue = [0, 3]\nclass = Candidate", fillcolor="#399de5"] ;
129 -> 130 ;
131 [label="OrbitalPeriod[days] <= 540.48\ngini = 0.38\nsamples = 57\nvalue = [72, 24]\nclass = Not Candidate", fillcolor="#eeab7b"] ;
129 -> 131 ;
132 [label="TransitDuration[hrs] <= 6.21\ngini = 0.34\nsamples = 54\nvalue = [72, 20]\nclass = Not Candidate", fillcolor="#eca470"] ;
131 -> 132 ;
133 [label="TransitDepthUpperUnc.[ppm] <= 228.5\ngini = 0.16\nsamples = 35\nvalue = [53, 5]\nclass = Not Candidate", fillcolor="#e78d4c"] ;
132 -> 133 ;
134 [label="TransitDurationUpperUnc.[hrs] <= 0.29\ngini = 0.1\nsamples = 33\nvalue = [52, 3]\nclass = Not Candidate", fillcolor="#e68844"] ;
133 -> 134 ;
135 [label="InsolationFluxLowerUnc.[Earthflux] <= -0.48\ngini = 0.5\nsamples = 2\nvalue = [1, 1]\nclass = Not Candidate", fillcolor="#ffffff"] ;
134 -> 135 ;
136 [label="gini = 0.0\nsamples = 1\nvalue = [0, 1]\nclass = Candidate", fillcolor="#399de5"] ;
135 -> 136 ;
137 [label="gini = 0.0\nsamples = 1\nvalue = [1, 0]\nclass = Not Candidate", fillcolor="#e58139"] ;
135 -> 137 ;
138 [label="StellarSurfaceGravityUpperUnc.[log10(cm/s**2)] <= 0.44\ngini = 0.07\nsamples = 31\nvalue = [51, 2]\nclass = Not Candidate", fillcolor="#e68641"] ;
134 -> 138 ;
139 [label="EquilibriumTemperature[K <= 713.5\ngini = 0.04\nsamples = 30\nvalue = [51, 1]\nclass = Not Candidate", fillcolor="#e6833d"] ;
138 -> 139 ;
140 [label="gini = 0.0\nsamples = 28\nvalue = [50, 0]\nclass = Not Candidate", fillcolor="#e58139"] ;
139 -> 140 ;
141 [label="InsolationFluxLowerUnc.[Earthflux] <= -42.71\ngini = 0.5\nsamples = 2\nvalue = [1, 1]\nclass = Not Candidate", fillcolor="#ffffff"] ;
139 -> 141 ;
142 [label="gini = 0.0\nsamples = 1\nvalue = [1, 0]\nclass = Not Candidate", fillcolor="#e58139"] ;
141 -> 142 ;
143 [label="gini = 0.0\nsamples = 1\nvalue = [0, 1]\nclass = Candidate", fillcolor="#399de5"] ;
141 -> 143 ;
144 [label="gini = 0.0\nsamples = 1\nvalue = [0, 1]\nclass = Candidate", fillcolor="#399de5"] ;
138 -> 144 ;
145 [label="TransitEpochLowerUnc.[BKJD] <= -0.02\ngini = 0.44\nsamples = 2\nvalue = [1, 2]\nclass = Candidate", fillcolor="#9ccef2"] ;
133 -> 145 ;
146 [label="gini = 0.0\nsamples = 1\nvalue = [0, 2]\nclass = Candidate", fillcolor="#399de5"] ;
145 -> 146 ;
147 [label="gini = 0.0\nsamples = 1\nvalue = [1, 0]\nclass = Not Candidate", fillcolor="#e58139"] ;
145 -> 147 ;
148 [label="InsolationFlux[Earthflux] <= 1.98\ngini = 0.49\nsamples = 19\nvalue = [19, 15]\nclass = Not Candidate", fillcolor="#fae4d5"] ;
132 -> 148 ;
149 [label="Kepler-band[mag] <= 15.74\ngini = 0.35\nsamples = 11\nvalue = [17, 5]\nclass = Not Candidate", fillcolor="#eda673"] ;
148 -> 149 ;
150 [label="Dec[decimaldegrees] <= 44.04\ngini = 0.19\nsamples = 10\nvalue = [17, 2]\nclass = Not Candidate", fillcolor="#e89050"] ;
149 -> 150 ;
151 [label="gini = 0.0\nsamples = 7\nvalue = [15, 0]\nclass = Not Candidate", fillcolor="#e58139"] ;
150 -> 151 ;
152 [label="PlanetaryRadius[Earthradii] <= 2.6\ngini = 0.5\nsamples = 3\nvalue = [2, 2]\nclass = Not Candidate", fillcolor="#ffffff"] ;
150 -> 152 ;
153 [label="gini = 0.0\nsamples = 2\nvalue = [2, 0]\nclass = Not Candidate", fillcolor="#e58139"] ;
152 -> 153 ;
154 [label="gini = 0.0\nsamples = 1\nvalue = [0, 2]\nclass = Candidate", fillcolor="#399de5"] ;
152 -> 154 ;
155 [label="gini = 0.0\nsamples = 1\nvalue = [0, 3]\nclass = Candidate", fillcolor="#399de5"] ;
149 -> 155 ;
156 [label="ImpactParameterUpperUnc <= 3.58\ngini = 0.28\nsamples = 8\nvalue = [2, 10]\nclass = Candidate", fillcolor="#61b1ea"] ;
148 -> 156 ;
157 [label="StellarRadiusUpperUnc.[Solarradii] <= 0.52\ngini = 0.17\nsamples = 7\nvalue = [1, 10]\nclass = Candidate", fillcolor="#4da7e8"] ;
156 -> 157 ;
158 [label="gini = 0.0\nsamples = 6\nvalue = [0, 10]\nclass = Candidate", fillcolor="#399de5"] ;
157 -> 158 ;
159 [label="gini = 0.0\nsamples = 1\nvalue = [1, 0]\nclass = Not Candidate", fillcolor="#e58139"] ;
157 -> 159 ;
160 [label="gini = 0.0\nsamples = 1\nvalue = [1, 0]\nclass = Not Candidate", fillcolor="#e58139"] ;
156 -> 160 ;
161 [label="gini = 0.0\nsamples = 3\nvalue = [0, 4]\nclass = Candidate", fillcolor="#399de5"] ;
131 -> 161 ;
162 [label="TransitEpochUpperUnc.[BKJD] <= 0.01\ngini = 0.5\nsamples = 34\nvalue = [21, 25]\nclass = Candidate", fillcolor="#dfeffb"] ;
128 -> 162 ;
163 [label="TransitSignal-to-Noise <= 10.05\ngini = 0.45\nsamples = 16\nvalue = [15, 8]\nclass = Not Candidate", fillcolor="#f3c4a3"] ;
162 -> 163 ;
164 [label="StellarRadiusUpperUnc.[Solarradii] <= 0.73\ngini = 0.24\nsamples = 9\nvalue = [12, 2]\nclass = Not Candidate", fillcolor="#e9965a"] ;
163 -> 164 ;
165 [label="gini = 0.0\nsamples = 8\nvalue = [12, 0]\nclass = Not Candidate", fillcolor="#e58139"] ;
164 -> 165 ;
166 [label="gini = 0.0\nsamples = 1\nvalue = [0, 2]\nclass = Candidate", fillcolor="#399de5"] ;
164 -> 166 ;
167 [label="StellarRadiusUpperUnc.[Solarradii] <= 0.29\ngini = 0.44\nsamples = 7\nvalue = [3, 6]\nclass = Candidate", fillcolor="#9ccef2"] ;
163 -> 167 ;
168 [label="OrbitalPeriod[days] <= 363.41\ngini = 0.38\nsamples = 3\nvalue = [3, 1]\nclass = Not Candidate", fillcolor="#eeab7b"] ;
167 -> 168 ;
169 [label="gini = 0.0\nsamples = 2\nvalue = [3, 0]\nclass = Not Candidate", fillcolor="#e58139"] ;
168 -> 169 ;
170 [label="gini = 0.0\nsamples = 1\nvalue = [0, 1]\nclass = Candidate", fillcolor="#399de5"] ;
168 -> 170 ;
171 [label="gini = 0.0\nsamples = 4\nvalue = [0, 5]\nclass = Candidate", fillcolor="#399de5"] ;
167 -> 171 ;
172 [label="InsolationFlux[Earthflux] <= 112.34\ngini = 0.39\nsamples = 18\nvalue = [6, 17]\nclass = Candidate", fillcolor="#7fc0ee"] ;
162 -> 172 ;
173 [label="ImpactParameterUpperUnc <= 0.46\ngini = 0.26\nsamples = 16\nvalue = [3, 17]\nclass = Candidate", fillcolor="#5caeea"] ;
172 -> 173 ;
174 [label="gini = 0.0\nsamples = 13\nvalue = [0, 16]\nclass = Candidate", fillcolor="#399de5"] ;
173 -> 174 ;
175 [label="StellarEffectiveTemperatureLowerUnc.[K] <= -211.0\ngini = 0.38\nsamples = 3\nvalue = [3, 1]\nclass = Not Candidate", fillcolor="#eeab7b"] ;
173 -> 175 ;
176 [label="gini = 0.0\nsamples = 2\nvalue = [3, 0]\nclass = Not Candidate", fillcolor="#e58139"] ;
175 -> 176 ;
177 [label="gini = 0.0\nsamples = 1\nvalue = [0, 1]\nclass = Candidate", fillcolor="#399de5"] ;
175 -> 177 ;
178 [label="gini = 0.0\nsamples = 2\nvalue = [3, 0]\nclass = Not Candidate", fillcolor="#e58139"] ;
172 -> 178 ;
179 [label="TransitDuration[hrs] <= 2.79\ngini = 0.48\nsamples = 41\nvalue = [24, 36]\nclass = Candidate", fillcolor="#bddef6"] ;
127 -> 179 ;
180 [label="ImpactParameterLowerUnc <= -0.34\ngini = 0.18\nsamples = 6\nvalue = [9, 1]\nclass = Not Candidate", fillcolor="#e88f4f"] ;
179 -> 180 ;
181 [label="TransitDurationUpperUnc.[hrs] <= 0.49\ngini = 0.5\nsamples = 2\nvalue = [1, 1]\nclass = Not Candidate", fillcolor="#ffffff"] ;
180 -> 181 ;
182 [label="gini = 0.0\nsamples = 1\nvalue = [1, 0]\nclass = Not Candidate", fillcolor="#e58139"] ;
181 -> 182 ;
183 [label="gini = 0.0\nsamples = 1\nvalue = [0, 1]\nclass = Candidate", fillcolor="#399de5"] ;
181 -> 183 ;
184 [label="gini = 0.0\nsamples = 4\nvalue = [8, 0]\nclass = Not Candidate", fillcolor="#e58139"] ;
180 -> 184 ;
185 [label="InsolationFlux[Earthflux] <= 1.9\ngini = 0.42\nsamples = 35\nvalue = [15, 35]\nclass = Candidate", fillcolor="#8ec7f0"] ;
179 -> 185 ;
186 [label="StellarEffectiveTemperature[K] <= 5725.0\ngini = 0.38\nsamples = 6\nvalue = [6, 2]\nclass = Not Candidate", fillcolor="#eeab7b"] ;
185 -> 186 ;
187 [label="InsolationFluxLowerUnc.[Earthflux] <= -0.37\ngini = 0.44\nsamples = 3\nvalue = [1, 2]\nclass = Candidate", fillcolor="#9ccef2"] ;
186 -> 187 ;
188 [label="gini = 0.0\nsamples = 1\nvalue = [1, 0]\nclass = Not Candidate", fillcolor="#e58139"] ;
187 -> 188 ;
189 [label="gini = 0.0\nsamples = 2\nvalue = [0, 2]\nclass = Candidate", fillcolor="#399de5"] ;
187 -> 189 ;
190 [label="gini = 0.0\nsamples = 3\nvalue = [5, 0]\nclass = Not Candidate", fillcolor="#e58139"] ;
186 -> 190 ;
191 [label="PlanetaryRadius[Earthradii] <= 28.66\ngini = 0.34\nsamples = 29\nvalue = [9, 33]\nclass = Candidate", fillcolor="#6fb8ec"] ;
185 -> 191 ;
192 [label="OrbitalPeriodLowerUnc.[days] <= -0.01\ngini = 0.29\nsamples = 27\nvalue = [7, 33]\nclass = Candidate", fillcolor="#63b2eb"] ;
191 -> 192 ;
193 [label="TransitEpoch[BKJD] <= 175.6\ngini = 0.49\nsamples = 8\nvalue = [4, 5]\nclass = Candidate", fillcolor="#d7ebfa"] ;
192 -> 193 ;
194 [label="gini = 0.0\nsamples = 3\nvalue = [0, 4]\nclass = Candidate", fillcolor="#399de5"] ;
193 -> 194 ;
195 [label="PlanetaryRadiusLowerUnc.[Earthradii] <= -1.34\ngini = 0.32\nsamples = 5\nvalue = [4, 1]\nclass = Not Candidate", fillcolor="#eca06a"] ;
193 -> 195 ;
196 [label="gini = 0.0\nsamples = 1\nvalue = [0, 1]\nclass = Candidate", fillcolor="#399de5"] ;
195 -> 196 ;
197 [label="gini = 0.0\nsamples = 4\nvalue = [4, 0]\nclass = Not Candidate", fillcolor="#e58139"] ;
195 -> 197 ;
198 [label="OrbitalPeriodLowerUnc.[days] <= -0.0\ngini = 0.17\nsamples = 19\nvalue = [3, 28]\nclass = Candidate", fillcolor="#4ea8e8"] ;
192 -> 198 ;
199 [label="OrbitalPeriodUpperUnc.[days] <= 0.0\ngini = 0.12\nsamples = 18\nvalue = [2, 28]\nclass = Candidate", fillcolor="#47a4e7"] ;
198 -> 199 ;
200 [label="TransitEpoch[BKJD] <= 184.19\ngini = 0.44\nsamples = 3\nvalue = [1, 2]\nclass = Candidate", fillcolor="#9ccef2"] ;
199 -> 200 ;
201 [label="gini = 0.0\nsamples = 2\nvalue = [0, 2]\nclass = Candidate", fillcolor="#399de5"] ;
200 -> 201 ;
202 [label="gini = 0.0\nsamples = 1\nvalue = [1, 0]\nclass = Not Candidate", fillcolor="#e58139"] ;
200 -> 202 ;
203 [label="RA[decimaldegrees] <= 295.67\ngini = 0.07\nsamples = 15\nvalue = [1, 26]\nclass = Candidate", fillcolor="#41a1e6"] ;
199 -> 203 ;
204 [label="gini = 0.0\nsamples = 11\nvalue = [0, 21]\nclass = Candidate", fillcolor="#399de5"] ;
203 -> 204 ;
205 [label="TransitEpoch[BKJD] <= 187.78\ngini = 0.28\nsamples = 4\nvalue = [1, 5]\nclass = Candidate", fillcolor="#61b1ea"] ;
203 -> 205 ;
206 [label="gini = 0.0\nsamples = 3\nvalue = [0, 5]\nclass = Candidate", fillcolor="#399de5"] ;
205 -> 206 ;
207 [label="gini = 0.0\nsamples = 1\nvalue = [1, 0]\nclass = Not Candidate", fillcolor="#e58139"] ;
205 -> 207 ;
208 [label="gini = 0.0\nsamples = 1\nvalue = [1, 0]\nclass = Not Candidate", fillcolor="#e58139"] ;
198 -> 208 ;
209 [label="gini = 0.0\nsamples = 2\nvalue = [2, 0]\nclass = Not Candidate", fillcolor="#e58139"] ;
191 -> 209 ;
210 [label="Kepler-band[mag] <= 14.34\ngini = 0.33\nsamples = 17\nvalue = [6, 23]\nclass = Candidate", fillcolor="#6db7ec"] ;
126 -> 210 ;
211 [label="TransitEpochUpperUnc.[BKJD] <= 0.01\ngini = 0.38\nsamples = 3\nvalue = [3, 1]\nclass = Not Candidate", fillcolor="#eeab7b"] ;
210 -> 211 ;
212 [label="gini = 0.0\nsamples = 1\nvalue = [0, 1]\nclass = Candidate", fillcolor="#399de5"] ;
211 -> 212 ;
213 [label="gini = 0.0\nsamples = 2\nvalue = [3, 0]\nclass = Not Candidate", fillcolor="#e58139"] ;
211 -> 213 ;
214 [label="Dec[decimaldegrees] <= 38.57\ngini = 0.21\nsamples = 14\nvalue = [3, 22]\nclass = Candidate", fillcolor="#54aae9"] ;
210 -> 214 ;
215 [label="gini = 0.0\nsamples = 1\nvalue = [2, 0]\nclass = Not Candidate", fillcolor="#e58139"] ;
214 -> 215 ;
216 [label="TransitEpoch[BKJD] <= 469.67\ngini = 0.08\nsamples = 13\nvalue = [1, 22]\nclass = Candidate", fillcolor="#42a1e6"] ;
214 -> 216 ;
217 [label="gini = 0.0\nsamples = 10\nvalue = [0, 20]\nclass = Candidate", fillcolor="#399de5"] ;
216 -> 217 ;
218 [label="InsolationFluxUpperUnc.[Earthflux] <= 0.22\ngini = 0.44\nsamples = 3\nvalue = [1, 2]\nclass = Candidate", fillcolor="#9ccef2"] ;
216 -> 218 ;
219 [label="gini = 0.0\nsamples = 2\nvalue = [0, 2]\nclass = Candidate", fillcolor="#399de5"] ;
218 -> 219 ;
220 [label="gini = 0.0\nsamples = 1\nvalue = [1, 0]\nclass = Not Candidate", fillcolor="#e58139"] ;
218 -> 220 ;
221 [label="TransitDuration[hrs] <= 13.77\ngini = 0.43\nsamples = 1030\nvalue = [515, 1139]\nclass = Candidate", fillcolor="#93c9f1"] ;
3 -> 221 ;
222 [label="TransitEpoch[BKJD] <= 133.4\ngini = 0.41\nsamples = 985\nvalue = [457, 1129]\nclass = Candidate", fillcolor="#89c5f0"] ;
221 -> 222 ;
223 [label="TransitDurationUpperUnc.[hrs] <= 0.26\ngini = 0.5\nsamples = 196\nvalue = [164, 168]\nclass = Candidate", fillcolor="#fafdfe"] ;
222 -> 223 ;
224 [label="PlanetaryRadiusUpperUnc.[Earthradii] <= 1.06\ngini = 0.45\nsamples = 136\nvalue = [78, 145]\nclass = Candidate", fillcolor="#a4d2f3"] ;
223 -> 224 ;
225 [label="StellarSurfaceGravityLowerUnc.[log10(cm/s**2)] <= -0.19\ngini = 0.38\nsamples = 118\nvalue = [46, 138]\nclass = Candidate", fillcolor="#7bbeee"] ;
224 -> 225 ;
226 [label="StellarSurfaceGravity[log10(cm/s**2)] <= 4.27\ngini = 0.05\nsamples = 28\nvalue = [1, 41]\nclass = Candidate", fillcolor="#3e9fe6"] ;
225 -> 226 ;
227 [label="gini = 0.0\nsamples = 1\nvalue = [1, 0]\nclass = Not Candidate", fillcolor="#e58139"] ;
226 -> 227 ;
228 [label="gini = 0.0\nsamples = 27\nvalue = [0, 41]\nclass = Candidate", fillcolor="#399de5"] ;
226 -> 228 ;
229 [label="StellarSurfaceGravityLowerUnc.[log10(cm/s**2)] <= -0.19\ngini = 0.43\nsamples = 90\nvalue = [45, 97]\nclass = Candidate", fillcolor="#95caf1"] ;
225 -> 229 ;
230 [label="PlanetaryRadiusUpperUnc.[Earthradii] <= 0.62\ngini = 0.2\nsamples = 5\nvalue = [8, 1]\nclass = Not Candidate", fillcolor="#e89152"] ;
229 -> 230 ;
231 [label="gini = 0.0\nsamples = 4\nvalue = [8, 0]\nclass = Not Candidate", fillcolor="#e58139"] ;
230 -> 231 ;
232 [label="gini = 0.0\nsamples = 1\nvalue = [0, 1]\nclass = Candidate", fillcolor="#399de5"] ;
230 -> 232 ;
233 [label="TransitDepthUpperUnc.[ppm] <= 19.8\ngini = 0.4\nsamples = 85\nvalue = [37, 96]\nclass = Candidate", fillcolor="#85c3ef"] ;
229 -> 233 ;
234 [label="RA[decimaldegrees] <= 289.81\ngini = 0.49\nsamples = 49\nvalue = [32, 43]\nclass = Candidate", fillcolor="#cce6f8"] ;
233 -> 234 ;
235 [label="StellarEffectiveTemperatureLowerUnc.[K] <= -138.5\ngini = 0.31\nsamples = 20\nvalue = [6, 25]\nclass = Candidate", fillcolor="#69b5eb"] ;
234 -> 235 ;
236 [label="StellarEffectiveTemperature[K] <= 6007.5\ngini = 0.24\nsamples = 19\nvalue = [4, 25]\nclass = Candidate", fillcolor="#59ade9"] ;
235 -> 236 ;
237 [label="InsolationFlux[Earthflux] <= 387.38\ngini = 0.14\nsamples = 16\nvalue = [2, 24]\nclass = Candidate", fillcolor="#49a5e7"] ;
236 -> 237 ;
238 [label="gini = 0.0\nsamples = 12\nvalue = [0, 21]\nclass = Candidate", fillcolor="#399de5"] ;
237 -> 238 ;
239 [label="ImpactParameter <= 0.28\ngini = 0.48\nsamples = 4\nvalue = [2, 3]\nclass = Candidate", fillcolor="#bddef6"] ;
237 -> 239 ;
240 [label="gini = 0.0\nsamples = 2\nvalue = [0, 3]\nclass = Candidate", fillcolor="#399de5"] ;
239 -> 240 ;
241 [label="gini = 0.0\nsamples = 2\nvalue = [2, 0]\nclass = Not Candidate", fillcolor="#e58139"] ;
239 -> 241 ;
242 [label="InsolationFluxLowerUnc.[Earthflux] <= -62.16\ngini = 0.44\nsamples = 3\nvalue = [2, 1]\nclass = Not Candidate", fillcolor="#f2c09c"] ;
236 -> 242 ;
243 [label="gini = 0.0\nsamples = 2\nvalue = [2, 0]\nclass = Not Candidate", fillcolor="#e58139"] ;
242 -> 243 ;
244 [label="gini = 0.0\nsamples = 1\nvalue = [0, 1]\nclass = Candidate", fillcolor="#399de5"] ;
242 -> 244 ;
245 [label="gini = 0.0\nsamples = 1\nvalue = [2, 0]\nclass = Not Candidate", fillcolor="#e58139"] ;
235 -> 245 ;
246 [label="TransitDurationUpperUnc.[hrs] <= 0.13\ngini = 0.48\nsamples = 29\nvalue = [26, 18]\nclass = Not Candidate", fillcolor="#f7d8c2"] ;
234 -> 246 ;
247 [label="StellarSurfaceGravityUpperUnc.[log10(cm/s**2)] <= 0.09\ngini = 0.18\nsamples = 10\nvalue = [1, 9]\nclass = Candidate", fillcolor="#4fa8e8"] ;
246 -> 247 ;
248 [label="gini = 0.0\nsamples = 9\nvalue = [0, 9]\nclass = Candidate", fillcolor="#399de5"] ;
247 -> 248 ;
249 [label="gini = 0.0\nsamples = 1\nvalue = [1, 0]\nclass = Not Candidate", fillcolor="#e58139"] ;
247 -> 249 ;
250 [label="StellarRadiusUpperUnc.[Solarradii] <= 0.27\ngini = 0.39\nsamples = 19\nvalue = [25, 9]\nclass = Not Candidate", fillcolor="#eeae80"] ;
246 -> 250 ;
251 [label="OrbitalPeriodUpperUnc.[days] <= 0.0\ngini = 0.24\nsamples = 17\nvalue = [25, 4]\nclass = Not Candidate", fillcolor="#e99559"] ;
250 -> 251 ;
252 [label="TransitDepth[ppm] <= 71.4\ngini = 0.14\nsamples = 15\nvalue = [25, 2]\nclass = Not Candidate", fillcolor="#e78b49"] ;
251 -> 252 ;
253 [label="gini = 0.0\nsamples = 1\nvalue = [0, 1]\nclass = Candidate", fillcolor="#399de5"] ;
252 -> 253 ;
254 [label="Kepler-band[mag] <= 15.33\ngini = 0.07\nsamples = 14\nvalue = [25, 1]\nclass = Not Candidate", fillcolor="#e68641"] ;
252 -> 254 ;
255 [label="gini = 0.0\nsamples = 11\nvalue = [22, 0]\nclass = Not Candidate", fillcolor="#e58139"] ;
254 -> 255 ;
256 [label="TransitDepthUpperUnc.[ppm] <= 16.65\ngini = 0.38\nsamples = 3\nvalue = [3, 1]\nclass = Not Candidate", fillcolor="#eeab7b"] ;
254 -> 256 ;
257 [label="gini = 0.0\nsamples = 1\nvalue = [0, 1]\nclass = Candidate", fillcolor="#399de5"] ;
256 -> 257 ;
258 [label="gini = 0.0\nsamples = 2\nvalue = [3, 0]\nclass = Not Candidate", fillcolor="#e58139"] ;
256 -> 258 ;
259 [label="gini = 0.0\nsamples = 2\nvalue = [0, 2]\nclass = Candidate", fillcolor="#399de5"] ;
251 -> 259 ;
260 [label="gini = 0.0\nsamples = 2\nvalue = [0, 5]\nclass = Candidate", fillcolor="#399de5"] ;
250 -> 260 ;
261 [label="TransitDurationLowerUnc.[hrs] <= -0.02\ngini = 0.16\nsamples = 36\nvalue = [5, 53]\nclass = Candidate", fillcolor="#4ca6e7"] ;
233 -> 261 ;
262 [label="StellarEffectiveTemperature[K] <= 4725.0\ngini = 0.13\nsamples = 35\nvalue = [4, 53]\nclass = Candidate", fillcolor="#48a4e7"] ;
261 -> 262 ;
263 [label="InsolationFluxUpperUnc.[Earthflux] <= 27.91\ngini = 0.49\nsamples = 6\nvalue = [4, 5]\nclass = Candidate", fillcolor="#d7ebfa"] ;
262 -> 263 ;
264 [label="gini = 0.0\nsamples = 2\nvalue = [0, 4]\nclass = Candidate", fillcolor="#399de5"] ;
263 -> 264 ;
265 [label="TransitDepthUpperUnc.[ppm] <= 25.4\ngini = 0.32\nsamples = 4\nvalue = [4, 1]\nclass = Not Candidate", fillcolor="#eca06a"] ;
263 -> 265 ;
266 [label="StellarRadiusLowerUnc.[Solarradii] <= -0.04\ngini = 0.5\nsamples = 2\nvalue = [1, 1]\nclass = Not Candidate", fillcolor="#ffffff"] ;
265 -> 266 ;
267 [label="gini = 0.0\nsamples = 1\nvalue = [1, 0]\nclass = Not Candidate", fillcolor="#e58139"] ;
266 -> 267 ;
268 [label="gini = 0.0\nsamples = 1\nvalue = [0, 1]\nclass = Candidate", fillcolor="#399de5"] ;
266 -> 268 ;
269 [label="gini = 0.0\nsamples = 2\nvalue = [3, 0]\nclass = Not Candidate", fillcolor="#e58139"] ;
265 -> 269 ;
270 [label="gini = 0.0\nsamples = 29\nvalue = [0, 48]\nclass = Candidate", fillcolor="#399de5"] ;
262 -> 270 ;
271 [label="gini = 0.0\nsamples = 1\nvalue = [1, 0]\nclass = Not Candidate", fillcolor="#e58139"] ;
261 -> 271 ;
272 [label="StellarEffectiveTemperature[K] <= 6103.5\ngini = 0.29\nsamples = 18\nvalue = [32, 7]\nclass = Not Candidate", fillcolor="#eb9d64"] ;
224 -> 272 ;
273 [label="gini = 0.0\nsamples = 16\nvalue = [32, 0]\nclass = Not Candidate", fillcolor="#e58139"] ;
272 -> 273 ;
274 [label="gini = 0.0\nsamples = 2\nvalue = [0, 7]\nclass = Candidate", fillcolor="#399de5"] ;
272 -> 274 ;
275 [label="EquilibriumTemperature[K <= 699.5\ngini = 0.33\nsamples = 60\nvalue = [86, 23]\nclass = Not Candidate", fillcolor="#eca36e"] ;
223 -> 275 ;
276 [label="StellarSurfaceGravity[log10(cm/s**2)] <= 4.63\ngini = 0.36\nsamples = 10\nvalue = [3, 10]\nclass = Candidate", fillcolor="#74baed"] ;
275 -> 276 ;
277 [label="gini = 0.0\nsamples = 8\nvalue = [0, 10]\nclass = Candidate", fillcolor="#399de5"] ;
276 -> 277 ;
278 [label="gini = 0.0\nsamples = 2\nvalue = [3, 0]\nclass = Not Candidate", fillcolor="#e58139"] ;
276 -> 278 ;
279 [label="Kepler-band[mag] <= 13.05\ngini = 0.23\nsamples = 50\nvalue = [83, 13]\nclass = Not Candidate", fillcolor="#e99558"] ;
275 -> 279 ;
280 [label="gini = 0.0\nsamples = 2\nvalue = [0, 6]\nclass = Candidate", fillcolor="#399de5"] ;
279 -> 280 ;
281 [label="StellarRadius[Solarradii] <= 1.08\ngini = 0.14\nsamples = 48\nvalue = [83, 7]\nclass = Not Candidate", fillcolor="#e78c4a"] ;
279 -> 281 ;
282 [label="StellarSurfaceGravityLowerUnc.[log10(cm/s**2)] <= -0.18\ngini = 0.07\nsamples = 43\nvalue = [80, 3]\nclass = Not Candidate", fillcolor="#e68640"] ;
281 -> 282 ;
283 [label="TransitDepthUpperUnc.[ppm] <= 11.6\ngini = 0.26\nsamples = 13\nvalue = [17, 3]\nclass = Not Candidate", fillcolor="#ea975c"] ;
282 -> 283 ;
284 [label="gini = 0.0\nsamples = 7\nvalue = [12, 0]\nclass = Not Candidate", fillcolor="#e58139"] ;
283 -> 284 ;
285 [label="PlanetaryRadius[Earthradii] <= 0.97\ngini = 0.47\nsamples = 6\nvalue = [5, 3]\nclass = Not Candidate", fillcolor="#f5cdb0"] ;
283 -> 285 ;
286 [label="TransitSignal-to-Noise <= 10.15\ngini = 0.38\nsamples = 3\nvalue = [1, 3]\nclass = Candidate", fillcolor="#7bbeee"] ;
285 -> 286 ;
287 [label="gini = 0.0\nsamples = 2\nvalue = [0, 3]\nclass = Candidate", fillcolor="#399de5"] ;
286 -> 287 ;
288 [label="gini = 0.0\nsamples = 1\nvalue = [1, 0]\nclass = Not Candidate", fillcolor="#e58139"] ;
286 -> 288 ;
289 [label="gini = 0.0\nsamples = 3\nvalue = [4, 0]\nclass = Not Candidate", fillcolor="#e58139"] ;
285 -> 289 ;
290 [label="gini = 0.0\nsamples = 30\nvalue = [63, 0]\nclass = Not Candidate", fillcolor="#e58139"] ;
282 -> 290 ;
291 [label="TransitEpoch[BKJD] <= 132.08\ngini = 0.49\nsamples = 5\nvalue = [3, 4]\nclass = Candidate", fillcolor="#cee6f8"] ;
281 -> 291 ;
292 [label="gini = 0.0\nsamples = 2\nvalue = [0, 3]\nclass = Candidate", fillcolor="#399de5"] ;
291 -> 292 ;
293 [label="ImpactParameterLowerUnc <= -0.31\ngini = 0.38\nsamples = 3\nvalue = [3, 1]\nclass = Not Candidate", fillcolor="#eeab7b"] ;
291 -> 293 ;
294 [label="gini = 0.0\nsamples = 1\nvalue = [2, 0]\nclass = Not Candidate", fillcolor="#e58139"] ;
293 -> 294 ;
295 [label="TransitDurationLowerUnc.[hrs] <= -0.5\ngini = 0.5\nsamples = 2\nvalue = [1, 1]\nclass = Not Candidate", fillcolor="#ffffff"] ;
293 -> 295 ;
296 [label="gini = 0.0\nsamples = 1\nvalue = [1, 0]\nclass = Not Candidate", fillcolor="#e58139"] ;
295 -> 296 ;
297 [label="gini = 0.0\nsamples = 1\nvalue = [0, 1]\nclass = Candidate", fillcolor="#399de5"] ;
295 -> 297 ;
298 [label="RA[decimaldegrees] <= 296.41\ngini = 0.36\nsamples = 789\nvalue = [293, 961]\nclass = Candidate", fillcolor="#75bbed"] ;
222 -> 298 ;
299 [label="StellarSurfaceGravityLowerUnc.[log10(cm/s**2)] <= -0.34\ngini = 0.29\nsamples = 619\nvalue = [176, 817]\nclass = Candidate", fillcolor="#64b2eb"] ;
298 -> 299 ;
300 [label="StellarRadiusUpperUnc.[Solarradii] <= 0.6\ngini = 0.47\nsamples = 9\nvalue = [8, 5]\nclass = Not Candidate", fillcolor="#f5d0b5"] ;
299 -> 300 ;
301 [label="gini = 0.0\nsamples = 4\nvalue = [0, 5]\nclass = Candidate", fillcolor="#399de5"] ;
300 -> 301 ;
302 [label="gini = 0.0\nsamples = 5\nvalue = [8, 0]\nclass = Not Candidate", fillcolor="#e58139"] ;
300 -> 302 ;
303 [label="TransitDepth[ppm] <= 34700.0\ngini = 0.28\nsamples = 610\nvalue = [168, 812]\nclass = Candidate", fillcolor="#62b1ea"] ;
299 -> 303 ;
304 [label="ImpactParameter <= 0.87\ngini = 0.28\nsamples = 607\nvalue = [160, 812]\nclass = Candidate", fillcolor="#60b0ea"] ;
303 -> 304 ;
305 [label="TransitDurationUpperUnc.[hrs] <= 0.23\ngini = 0.24\nsamples = 509\nvalue = [113, 707]\nclass = Candidate", fillcolor="#59ade9"] ;
304 -> 305 ;
306 [label="TransitDepth[ppm] <= 295.0\ngini = 0.15\nsamples = 285\nvalue = [38, 432]\nclass = Candidate", fillcolor="#4aa6e7"] ;
305 -> 306 ;
307 [label="TransitDepthUpperUnc.[ppm] <= 18.0\ngini = 0.33\nsamples = 60\nvalue = [21, 79]\nclass = Candidate", fillcolor="#6eb7ec"] ;
306 -> 307 ;
308 [label="StellarSurfaceGravityLowerUnc.[log10(cm/s**2)] <= -0.21\ngini = 0.41\nsamples = 44\nvalue = [21, 51]\nclass = Candidate", fillcolor="#8bc5f0"] ;
307 -> 308 ;
309 [label="gini = 0.0\nsamples = 13\nvalue = [0, 21]\nclass = Candidate", fillcolor="#399de5"] ;
308 -> 309 ;
310 [label="StellarRadius[Solarradii] <= 1.06\ngini = 0.48\nsamples = 31\nvalue = [21, 30]\nclass = Candidate", fillcolor="#c4e2f7"] ;
308 -> 310 ;
311 [label="OrbitalPeriodUpperUnc.[days] <= 0.0\ngini = 0.49\nsamples = 24\nvalue = [20, 16]\nclass = Not Candidate", fillcolor="#fae6d7"] ;
310 -> 311 ;
312 [label="ImpactParameter <= 0.37\ngini = 0.43\nsamples = 19\nvalue = [20, 9]\nclass = Not Candidate", fillcolor="#f1ba92"] ;
311 -> 312 ;
313 [label="StellarEffectiveTemperatureUpperUnc.[K] <= 164.5\ngini = 0.48\nsamples = 11\nvalue = [6, 9]\nclass = Candidate", fillcolor="#bddef6"] ;
312 -> 313 ;
314 [label="gini = 0.0\nsamples = 6\nvalue = [0, 8]\nclass = Candidate", fillcolor="#399de5"] ;
313 -> 314 ;
315 [label="PlanetaryRadiusLowerUnc.[Earthradii] <= -0.05\ngini = 0.24\nsamples = 5\nvalue = [6, 1]\nclass = Not Candidate", fillcolor="#e9965a"] ;
313 -> 315 ;
316 [label="gini = 0.0\nsamples = 4\nvalue = [6, 0]\nclass = Not Candidate", fillcolor="#e58139"] ;
315 -> 316 ;
317 [label="gini = 0.0\nsamples = 1\nvalue = [0, 1]\nclass = Candidate", fillcolor="#399de5"] ;
315 -> 317 ;
318 [label="gini = 0.0\nsamples = 8\nvalue = [14, 0]\nclass = Not Candidate", fillcolor="#e58139"] ;
312 -> 318 ;
319 [label="gini = 0.0\nsamples = 5\nvalue = [0, 7]\nclass = Candidate", fillcolor="#399de5"] ;
311 -> 319 ;
320 [label="TransitSignal-to-Noise <= 11.25\ngini = 0.12\nsamples = 7\nvalue = [1, 14]\nclass = Candidate", fillcolor="#47a4e7"] ;
310 -> 320 ;
321 [label="gini = 0.0\nsamples = 1\nvalue = [1, 0]\nclass = Not Candidate", fillcolor="#e58139"] ;
320 -> 321 ;
322 [label="gini = 0.0\nsamples = 6\nvalue = [0, 14]\nclass = Candidate", fillcolor="#399de5"] ;
320 -> 322 ;
323 [label="gini = 0.0\nsamples = 16\nvalue = [0, 28]\nclass = Candidate", fillcolor="#399de5"] ;
307 -> 323 ;
324 [label="TransitEpoch[BKJD] <= 362.03\ngini = 0.09\nsamples = 225\nvalue = [17, 353]\nclass = Candidate", fillcolor="#43a2e6"] ;
306 -> 324 ;
325 [label="TransitDepth[ppm] <= 16100.0\ngini = 0.07\nsamples = 222\nvalue = [14, 352]\nclass = Candidate", fillcolor="#41a1e6"] ;
324 -> 325 ;
326 [label="InsolationFluxUpperUnc.[Earthflux] <= 132.58\ngini = 0.06\nsamples = 218\nvalue = [11, 348]\nclass = Candidate", fillcolor="#3fa0e6"] ;
325 -> 326 ;
327 [label="TransitDepth[ppm] <= 500.5\ngini = 0.01\nsamples = 166\nvalue = [2, 280]\nclass = Candidate", fillcolor="#3a9ee5"] ;
326 -> 327 ;
328 [label="StellarEffectiveTemperatureUpperUnc.[K] <= 156.5\ngini = 0.07\nsamples = 38\nvalue = [2, 54]\nclass = Candidate", fillcolor="#40a1e6"] ;
327 -> 328 ;
329 [label="Dec[decimaldegrees] <= 38.34\ngini = 0.21\nsamples = 14\nvalue = [2, 15]\nclass = Candidate", fillcolor="#53aae8"] ;
328 -> 329 ;
330 [label="gini = 0.0\nsamples = 1\nvalue = [1, 0]\nclass = Not Candidate", fillcolor="#e58139"] ;
329 -> 330 ;
331 [label="StellarEffectiveTemperatureUpperUnc.[K] <= 155.0\ngini = 0.12\nsamples = 13\nvalue = [1, 15]\nclass = Candidate", fillcolor="#46a4e7"] ;
329 -> 331 ;
332 [label="gini = 0.0\nsamples = 11\nvalue = [0, 14]\nclass = Candidate", fillcolor="#399de5"] ;
331 -> 332 ;
333 [label="TransitDurationUpperUnc.[hrs] <= 0.16\ngini = 0.5\nsamples = 2\nvalue = [1, 1]\nclass = Not Candidate", fillcolor="#ffffff"] ;
331 -> 333 ;
334 [label="gini = 0.0\nsamples = 1\nvalue = [1, 0]\nclass = Not Candidate", fillcolor="#e58139"] ;
333 -> 334 ;
335 [label="gini = 0.0\nsamples = 1\nvalue = [0, 1]\nclass = Candidate", fillcolor="#399de5"] ;
333 -> 335 ;
336 [label="gini = 0.0\nsamples = 24\nvalue = [0, 39]\nclass = Candidate", fillcolor="#399de5"] ;
328 -> 336 ;
337 [label="gini = 0.0\nsamples = 128\nvalue = [0, 226]\nclass = Candidate", fillcolor="#399de5"] ;
327 -> 337 ;
338 [label="EquilibriumTemperature[K <= 975.5\ngini = 0.21\nsamples = 52\nvalue = [9, 68]\nclass = Candidate", fillcolor="#53aae8"] ;
326 -> 338 ;
339 [label="TransitEpoch[BKJD] <= 136.73\ngini = 0.5\nsamples = 8\nvalue = [5, 6]\nclass = Candidate", fillcolor="#deeffb"] ;
338 -> 339 ;
340 [label="gini = 0.0\nsamples = 3\nvalue = [4, 0]\nclass = Not Candidate", fillcolor="#e58139"] ;
339 -> 340 ;
341 [label="PlanetaryRadiusLowerUnc.[Earthradii] <= -0.23\ngini = 0.24\nsamples = 5\nvalue = [1, 6]\nclass = Candidate", fillcolor="#5aade9"] ;
339 -> 341 ;
342 [label="gini = 0.0\nsamples = 4\nvalue = [0, 6]\nclass = Candidate", fillcolor="#399de5"] ;
341 -> 342 ;
343 [label="gini = 0.0\nsamples = 1\nvalue = [1, 0]\nclass = Not Candidate", fillcolor="#e58139"] ;
341 -> 343 ;
344 [label="Kepler-band[mag] <= 12.6\ngini = 0.11\nsamples = 44\nvalue = [4, 62]\nclass = Candidate", fillcolor="#46a3e7"] ;
338 -> 344 ;
345 [label="gini = 0.0\nsamples = 1\nvalue = [1, 0]\nclass = Not Candidate", fillcolor="#e58139"] ;
344 -> 345 ;
346 [label="OrbitalPeriod[days] <= 2.38\ngini = 0.09\nsamples = 43\nvalue = [3, 62]\nclass = Candidate", fillcolor="#43a2e6"] ;
344 -> 346 ;
347 [label="PlanetaryRadiusLowerUnc.[Earthradii] <= -0.13\ngini = 0.48\nsamples = 3\nvalue = [2, 3]\nclass = Candidate", fillcolor="#bddef6"] ;
346 -> 347 ;
348 [label="gini = 0.0\nsamples = 2\nvalue = [2, 0]\nclass = Not Candidate", fillcolor="#e58139"] ;
347 -> 348 ;
349 [label="gini = 0.0\nsamples = 1\nvalue = [0, 3]\nclass = Candidate", fillcolor="#399de5"] ;
347 -> 349 ;
350 [label="TransitEpochLowerUnc.[BKJD] <= -0.01\ngini = 0.03\nsamples = 40\nvalue = [1, 59]\nclass = Candidate", fillcolor="#3c9fe5"] ;
346 -> 350 ;
351 [label="TransitEpochLowerUnc.[BKJD] <= -0.01\ngini = 0.44\nsamples = 3\nvalue = [1, 2]\nclass = Candidate", fillcolor="#9ccef2"] ;
350 -> 351 ;
352 [label="gini = 0.0\nsamples = 2\nvalue = [0, 2]\nclass = Candidate", fillcolor="#399de5"] ;
351 -> 352 ;
353 [label="gini = 0.0\nsamples = 1\nvalue = [1, 0]\nclass = Not Candidate", fillcolor="#e58139"] ;
351 -> 353 ;
354 [label="gini = 0.0\nsamples = 37\nvalue = [0, 57]\nclass = Candidate", fillcolor="#399de5"] ;
350 -> 354 ;
355 [label="TransitDurationUpperUnc.[hrs] <= 0.02\ngini = 0.49\nsamples = 4\nvalue = [3, 4]\nclass = Candidate", fillcolor="#cee6f8"] ;
325 -> 355 ;
356 [label="gini = 0.0\nsamples = 2\nvalue = [0, 4]\nclass = Candidate", fillcolor="#399de5"] ;
355 -> 356 ;
357 [label="gini = 0.0\nsamples = 2\nvalue = [3, 0]\nclass = Not Candidate", fillcolor="#e58139"] ;
355 -> 357 ;
358 [label="PlanetaryRadiusUpperUnc.[Earthradii] <= 0.97\ngini = 0.38\nsamples = 3\nvalue = [3, 1]\nclass = Not Candidate", fillcolor="#eeab7b"] ;
324 -> 358 ;
359 [label="gini = 0.0\nsamples = 2\nvalue = [3, 0]\nclass = Not Candidate", fillcolor="#e58139"] ;
358 -> 359 ;
360 [label="gini = 0.0\nsamples = 1\nvalue = [0, 1]\nclass = Candidate", fillcolor="#399de5"] ;
358 -> 360 ;
361 [label="TransitEpochUpperUnc.[BKJD] <= 0.01\ngini = 0.34\nsamples = 224\nvalue = [75, 275]\nclass = Candidate", fillcolor="#6fb8ec"] ;
305 -> 361 ;
362 [label="gini = 0.0\nsamples = 5\nvalue = [6, 0]\nclass = Not Candidate", fillcolor="#e58139"] ;
361 -> 362 ;
363 [label="TransitDepthUpperUnc.[ppm] <= 56.75\ngini = 0.32\nsamples = 219\nvalue = [69, 275]\nclass = Candidate", fillcolor="#6bb6ec"] ;
361 -> 363 ;
364 [label="StellarRadiusUpperUnc.[Solarradii] <= 0.24\ngini = 0.27\nsamples = 192\nvalue = [48, 255]\nclass = Candidate", fillcolor="#5eafea"] ;
363 -> 364 ;
365 [label="InsolationFluxUpperUnc.[Earthflux] <= 13.13\ngini = 0.45\nsamples = 44\nvalue = [20, 39]\nclass = Candidate", fillcolor="#9fcff2"] ;
364 -> 365 ;
366 [label="TransitDepthUpperUnc.[ppm] <= 35.05\ngini = 0.2\nsamples = 19\nvalue = [3, 24]\nclass = Candidate", fillcolor="#52a9e8"] ;
365 -> 366 ;
367 [label="TransitEpoch[BKJD] <= 148.57\ngini = 0.32\nsamples = 10\nvalue = [3, 12]\nclass = Candidate", fillcolor="#6ab6ec"] ;
366 -> 367 ;
368 [label="StellarSurfaceGravityLowerUnc.[log10(cm/s**2)] <= -0.05\ngini = 0.48\nsamples = 5\nvalue = [3, 2]\nclass = Not Candidate", fillcolor="#f6d5bd"] ;
367 -> 368 ;
369 [label="gini = 0.0\nsamples = 3\nvalue = [3, 0]\nclass = Not Candidate", fillcolor="#e58139"] ;
368 -> 369 ;
370 [label="gini = 0.0\nsamples = 2\nvalue = [0, 2]\nclass = Candidate", fillcolor="#399de5"] ;
368 -> 370 ;
371 [label="gini = 0.0\nsamples = 5\nvalue = [0, 10]\nclass = Candidate", fillcolor="#399de5"] ;
367 -> 371 ;
372 [label="gini = 0.0\nsamples = 9\nvalue = [0, 12]\nclass = Candidate", fillcolor="#399de5"] ;
366 -> 372 ;
373 [label="TransitDepthUpperUnc.[ppm] <= 19.7\ngini = 0.5\nsamples = 25\nvalue = [17, 15]\nclass = Not Candidate", fillcolor="#fcf0e8"] ;
365 -> 373 ;
374 [label="TransitSignal-to-Noise <= 8.6\ngini = 0.32\nsamples = 12\nvalue = [12, 3]\nclass = Not Candidate", fillcolor="#eca06a"] ;
373 -> 374 ;
375 [label="gini = 0.0\nsamples = 2\nvalue = [0, 2]\nclass = Candidate", fillcolor="#399de5"] ;
374 -> 375 ;
376 [label="StellarEffectiveTemperatureUpperUnc.[K] <= 149.5\ngini = 0.14\nsamples = 10\nvalue = [12, 1]\nclass = Not Candidate", fillcolor="#e78c49"] ;
374 -> 376 ;
377 [label="StellarSurfaceGravityUpperUnc.[log10(cm/s**2)] <= 0.03\ngini = 0.44\nsamples = 2\nvalue = [2, 1]\nclass = Not Candidate", fillcolor="#f2c09c"] ;
376 -> 377 ;
378 [label="gini = 0.0\nsamples = 1\nvalue = [0, 1]\nclass = Candidate", fillcolor="#399de5"] ;
377 -> 378 ;
379 [label="gini = 0.0\nsamples = 1\nvalue = [2, 0]\nclass = Not Candidate", fillcolor="#e58139"] ;
377 -> 379 ;
380 [label="gini = 0.0\nsamples = 8\nvalue = [10, 0]\nclass = Not Candidate", fillcolor="#e58139"] ;
376 -> 380 ;
381 [label="RA[decimaldegrees] <= 289.31\ngini = 0.42\nsamples = 13\nvalue = [5, 12]\nclass = Candidate", fillcolor="#8bc6f0"] ;
373 -> 381 ;
382 [label="PlanetaryRadius[Earthradii] <= 1.01\ngini = 0.32\nsamples = 4\nvalue = [4, 1]\nclass = Not Candidate", fillcolor="#eca06a"] ;
381 -> 382 ;
383 [label="gini = 0.0\nsamples = 1\nvalue = [0, 1]\nclass = Candidate", fillcolor="#399de5"] ;
382 -> 383 ;
384 [label="gini = 0.0\nsamples = 3\nvalue = [4, 0]\nclass = Not Candidate", fillcolor="#e58139"] ;
382 -> 384 ;
385 [label="EquilibriumTemperature[K <= 586.5\ngini = 0.15\nsamples = 9\nvalue = [1, 11]\nclass = Candidate", fillcolor="#4ba6e7"] ;
381 -> 385 ;
386 [label="gini = 0.0\nsamples = 1\nvalue = [1, 0]\nclass = Not Candidate", fillcolor="#e58139"] ;
385 -> 386 ;
387 [label="gini = 0.0\nsamples = 8\nvalue = [0, 11]\nclass = Candidate", fillcolor="#399de5"] ;
385 -> 387 ;
388 [label="PlanetaryRadius[Earthradii] <= 1.5\ngini = 0.2\nsamples = 148\nvalue = [28, 216]\nclass = Candidate", fillcolor="#53aae8"] ;
364 -> 388 ;
389 [label="TransitDepthLowerUnc.[ppm] <= -4.5\ngini = 0.09\nsamples = 89\nvalue = [7, 147]\nclass = Candidate", fillcolor="#42a2e6"] ;
388 -> 389 ;
390 [label="TransitDurationLowerUnc.[hrs] <= -1.5\ngini = 0.08\nsamples = 88\nvalue = [6, 147]\nclass = Candidate", fillcolor="#41a1e6"] ;
389 -> 390 ;
391 [label="gini = 0.0\nsamples = 1\nvalue = [1, 0]\nclass = Not Candidate", fillcolor="#e58139"] ;
390 -> 391 ;
392 [label="TransitDuration[hrs] <= 1.77\ngini = 0.06\nsamples = 87\nvalue = [5, 147]\nclass = Candidate", fillcolor="#40a0e6"] ;
390 -> 392 ;
393 [label="TransitDurationUpperUnc.[hrs] <= 0.44\ngini = 0.42\nsamples = 7\nvalue = [3, 7]\nclass = Candidate", fillcolor="#8ec7f0"] ;
392 -> 393 ;
394 [label="gini = 0.0\nsamples = 4\nvalue = [0, 6]\nclass = Candidate", fillcolor="#399de5"] ;
393 -> 394 ;
395 [label="InsolationFluxUpperUnc.[Earthflux] <= 197.99\ngini = 0.38\nsamples = 3\nvalue = [3, 1]\nclass = Not Candidate", fillcolor="#eeab7b"] ;
393 -> 395 ;
396 [label="gini = 0.0\nsamples = 1\nvalue = [0, 1]\nclass = Candidate", fillcolor="#399de5"] ;
395 -> 396 ;
397 [label="gini = 0.0\nsamples = 2\nvalue = [3, 0]\nclass = Not Candidate", fillcolor="#e58139"] ;
395 -> 397 ;
398 [label="PlanetaryRadiusLowerUnc.[Earthradii] <= -0.15\ngini = 0.03\nsamples = 80\nvalue = [2, 140]\nclass = Candidate", fillcolor="#3c9ee5"] ;
392 -> 398 ;
399 [label="TransitEpoch[BKJD] <= 134.23\ngini = 0.07\nsamples = 32\nvalue = [2, 51]\nclass = Candidate", fillcolor="#41a1e6"] ;
398 -> 399 ;
400 [label="gini = 0.0\nsamples = 1\nvalue = [1, 0]\nclass = Not Candidate", fillcolor="#e58139"] ;
399 -> 400 ;
401 [label="TransitSignal-to-Noise <= 6.6\ngini = 0.04\nsamples = 31\nvalue = [1, 51]\nclass = Candidate", fillcolor="#3d9fe6"] ;
399 -> 401 ;
402 [label="gini = 0.0\nsamples = 1\nvalue = [1, 0]\nclass = Not Candidate", fillcolor="#e58139"] ;
401 -> 402 ;
403 [label="gini = 0.0\nsamples = 30\nvalue = [0, 51]\nclass = Candidate", fillcolor="#399de5"] ;
401 -> 403 ;
404 [label="gini = 0.0\nsamples = 48\nvalue = [0, 89]\nclass = Candidate", fillcolor="#399de5"] ;
398 -> 404 ;
405 [label="gini = 0.0\nsamples = 1\nvalue = [1, 0]\nclass = Not Candidate", fillcolor="#e58139"] ;
389 -> 405 ;
406 [label="TransitEpochLowerUnc.[BKJD] <= -0.01\ngini = 0.36\nsamples = 59\nvalue = [21, 69]\nclass = Candidate", fillcolor="#75bbed"] ;
388 -> 406 ;
407 [label="TransitDepthLowerUnc.[ppm] <= -47.5\ngini = 0.31\nsamples = 56\nvalue = [16, 69]\nclass = Candidate", fillcolor="#67b4eb"] ;
406 -> 407 ;
408 [label="gini = 0.0\nsamples = 2\nvalue = [3, 0]\nclass = Not Candidate", fillcolor="#e58139"] ;
407 -> 408 ;
409 [label="StellarEffectiveTemperatureUpperUnc.[K] <= 228.5\ngini = 0.27\nsamples = 54\nvalue = [13, 69]\nclass = Candidate", fillcolor="#5eafea"] ;
407 -> 409 ;
410 [label="StellarRadius[Solarradii] <= 8.13\ngini = 0.24\nsamples = 53\nvalue = [11, 69]\nclass = Candidate", fillcolor="#59ade9"] ;
409 -> 410 ;
411 [label="PlanetaryRadiusLowerUnc.[Earthradii] <= -0.13\ngini = 0.2\nsamples = 52\nvalue = [9, 69]\nclass = Candidate", fillcolor="#53aae8"] ;
410 -> 411 ;
412 [label="StellarEffectiveTemperature[K] <= 6166.0\ngini = 0.19\nsamples = 51\nvalue = [8, 69]\nclass = Candidate", fillcolor="#50a8e8"] ;
411 -> 412 ;
413 [label="OrbitalPeriodLowerUnc.[days] <= -0.0\ngini = 0.08\nsamples = 29\nvalue = [2, 48]\nclass = Candidate", fillcolor="#41a1e6"] ;
412 -> 413 ;
414 [label="gini = 0.0\nsamples = 16\nvalue = [0, 30]\nclass = Candidate", fillcolor="#399de5"] ;
413 -> 414 ;
415 [label="TransitDurationUpperUnc.[hrs] <= 0.24\ngini = 0.18\nsamples = 13\nvalue = [2, 18]\nclass = Candidate", fillcolor="#4fa8e8"] ;
413 -> 415 ;
416 [label="gini = 0.0\nsamples = 1\nvalue = [1, 0]\nclass = Not Candidate", fillcolor="#e58139"] ;
415 -> 416 ;
417 [label="TransitDurationUpperUnc.[hrs] <= 0.58\ngini = 0.1\nsamples = 12\nvalue = [1, 18]\nclass = Candidate", fillcolor="#44a2e6"] ;
415 -> 417 ;
418 [label="gini = 0.0\nsamples = 11\nvalue = [0, 18]\nclass = Candidate", fillcolor="#399de5"] ;
417 -> 418 ;
419 [label="gini = 0.0\nsamples = 1\nvalue = [1, 0]\nclass = Not Candidate", fillcolor="#e58139"] ;
417 -> 419 ;
420 [label="StellarSurfaceGravityLowerUnc.[log10(cm/s**2)] <= -0.26\ngini = 0.35\nsamples = 22\nvalue = [6, 21]\nclass = Candidate", fillcolor="#72b9ec"] ;
412 -> 420 ;
421 [label="InsolationFlux[Earthflux] <= 13.53\ngini = 0.38\nsamples = 4\nvalue = [3, 1]\nclass = Not Candidate", fillcolor="#eeab7b"] ;
420 -> 421 ;
422 [label="gini = 0.0\nsamples = 1\nvalue = [0, 1]\nclass = Candidate", fillcolor="#399de5"] ;
421 -> 422 ;
423 [label="gini = 0.0\nsamples = 3\nvalue = [3, 0]\nclass = Not Candidate", fillcolor="#e58139"] ;
421 -> 423 ;
424 [label="Kepler-band[mag] <= 15.83\ngini = 0.23\nsamples = 18\nvalue = [3, 20]\nclass = Candidate", fillcolor="#57ace9"] ;
420 -> 424 ;
425 [label="StellarRadiusLowerUnc.[Solarradii] <= -0.14\ngini = 0.17\nsamples = 17\nvalue = [2, 20]\nclass = Candidate", fillcolor="#4da7e8"] ;
424 -> 425 ;
426 [label="StellarSurfaceGravity[log10(cm/s**2)] <= 4.37\ngini = 0.38\nsamples = 8\nvalue = [2, 6]\nclass = Candidate", fillcolor="#7bbeee"] ;
425 -> 426 ;
427 [label="gini = 0.0\nsamples = 6\nvalue = [0, 6]\nclass = Candidate", fillcolor="#399de5"] ;
426 -> 427 ;
428 [label="gini = 0.0\nsamples = 2\nvalue = [2, 0]\nclass = Not Candidate", fillcolor="#e58139"] ;
426 -> 428 ;
429 [label="gini = 0.0\nsamples = 9\nvalue = [0, 14]\nclass = Candidate", fillcolor="#399de5"] ;
425 -> 429 ;
430 [label="gini = 0.0\nsamples = 1\nvalue = [1, 0]\nclass = Not Candidate", fillcolor="#e58139"] ;
424 -> 430 ;
431 [label="gini = 0.0\nsamples = 1\nvalue = [1, 0]\nclass = Not Candidate", fillcolor="#e58139"] ;
411 -> 431 ;
432 [label="gini = 0.0\nsamples = 1\nvalue = [2, 0]\nclass = Not Candidate", fillcolor="#e58139"] ;
410 -> 432 ;
433 [label="gini = 0.0\nsamples = 1\nvalue = [2, 0]\nclass = Not Candidate", fillcolor="#e58139"] ;
409 -> 433 ;
434 [label="gini = 0.0\nsamples = 3\nvalue = [5, 0]\nclass = Not Candidate", fillcolor="#e58139"] ;
406 -> 434 ;
435 [label="ImpactParameterLowerUnc <= -0.51\ngini = 0.5\nsamples = 27\nvalue = [21, 20]\nclass = Not Candidate", fillcolor="#fef9f6"] ;
363 -> 435 ;
436 [label="gini = 0.0\nsamples = 2\nvalue = [4, 0]\nclass = Not Candidate", fillcolor="#e58139"] ;
435 -> 436 ;
437 [label="EquilibriumTemperature[K <= 495.5\ngini = 0.5\nsamples = 25\nvalue = [17, 20]\nclass = Candidate", fillcolor="#e1f0fb"] ;
435 -> 437 ;
438 [label="ImpactParameterLowerUnc <= -0.08\ngini = 0.36\nsamples = 13\nvalue = [13, 4]\nclass = Not Candidate", fillcolor="#eda876"] ;
437 -> 438 ;
439 [label="RA[decimaldegrees] <= 286.83\ngini = 0.14\nsamples = 9\nvalue = [12, 1]\nclass = Not Candidate", fillcolor="#e78c49"] ;
438 -> 439 ;
440 [label="gini = 0.0\nsamples = 1\nvalue = [0, 1]\nclass = Candidate", fillcolor="#399de5"] ;
439 -> 440 ;
441 [label="gini = 0.0\nsamples = 8\nvalue = [12, 0]\nclass = Not Candidate", fillcolor="#e58139"] ;
439 -> 441 ;
442 [label="OrbitalPeriodLowerUnc.[days] <= -0.0\ngini = 0.38\nsamples = 4\nvalue = [1, 3]\nclass = Candidate", fillcolor="#7bbeee"] ;
438 -> 442 ;
443 [label="gini = 0.0\nsamples = 1\nvalue = [1, 0]\nclass = Not Candidate", fillcolor="#e58139"] ;
442 -> 443 ;
444 [label="gini = 0.0\nsamples = 3\nvalue = [0, 3]\nclass = Candidate", fillcolor="#399de5"] ;
442 -> 444 ;
445 [label="InsolationFluxLowerUnc.[Earthflux] <= -10.23\ngini = 0.32\nsamples = 12\nvalue = [4, 16]\nclass = Candidate", fillcolor="#6ab6ec"] ;
437 -> 445 ;
446 [label="ImpactParameterLowerUnc <= -0.43\ngini = 0.38\nsamples = 3\nvalue = [3, 1]\nclass = Not Candidate", fillcolor="#eeab7b"] ;
445 -> 446 ;
447 [label="gini = 0.0\nsamples = 1\nvalue = [0, 1]\nclass = Candidate", fillcolor="#399de5"] ;
446 -> 447 ;
448 [label="gini = 0.0\nsamples = 2\nvalue = [3, 0]\nclass = Not Candidate", fillcolor="#e58139"] ;
446 -> 448 ;
449 [label="StellarRadiusUpperUnc.[Solarradii] <= 0.37\ngini = 0.12\nsamples = 9\nvalue = [1, 15]\nclass = Candidate", fillcolor="#46a4e7"] ;
445 -> 449 ;
450 [label="gini = 0.0\nsamples = 7\nvalue = [0, 12]\nclass = Candidate", fillcolor="#399de5"] ;
449 -> 450 ;
451 [label="EquilibriumTemperature[K <= 551.5\ngini = 0.38\nsamples = 2\nvalue = [1, 3]\nclass = Candidate", fillcolor="#7bbeee"] ;
449 -> 451 ;
452 [label="gini = 0.0\nsamples = 1\nvalue = [1, 0]\nclass = Not Candidate", fillcolor="#e58139"] ;
451 -> 452 ;
453 [label="gini = 0.0\nsamples = 1\nvalue = [0, 3]\nclass = Candidate", fillcolor="#399de5"] ;
451 -> 453 ;
454 [label="OrbitalPeriodUpperUnc.[days] <= 0.0\ngini = 0.43\nsamples = 98\nvalue = [47, 105]\nclass = Candidate", fillcolor="#92c9f1"] ;
304 -> 454 ;
455 [label="RA[decimaldegrees] <= 291.63\ngini = 0.46\nsamples = 28\nvalue = [33, 18]\nclass = Not Candidate", fillcolor="#f3c6a5"] ;
454 -> 455 ;
456 [label="StellarSurfaceGravity[log10(cm/s**2)] <= 4.57\ngini = 0.45\nsamples = 16\nvalue = [9, 17]\nclass = Candidate", fillcolor="#a2d1f3"] ;
455 -> 456 ;
457 [label="gini = 0.0\nsamples = 9\nvalue = [0, 15]\nclass = Candidate", fillcolor="#399de5"] ;
456 -> 457 ;
458 [label="StellarRadiusUpperUnc.[Solarradii] <= 0.05\ngini = 0.3\nsamples = 7\nvalue = [9, 2]\nclass = Not Candidate", fillcolor="#eb9d65"] ;
456 -> 458 ;
459 [label="gini = 0.0\nsamples = 2\nvalue = [0, 2]\nclass = Candidate", fillcolor="#399de5"] ;
458 -> 459 ;
460 [label="gini = 0.0\nsamples = 5\nvalue = [9, 0]\nclass = Not Candidate", fillcolor="#e58139"] ;
458 -> 460 ;
461 [label="TransitDepthLowerUnc.[ppm] <= -17.05\ngini = 0.08\nsamples = 12\nvalue = [24, 1]\nclass = Not Candidate", fillcolor="#e68641"] ;
455 -> 461 ;
462 [label="gini = 0.0\nsamples = 8\nvalue = [16, 0]\nclass = Not Candidate", fillcolor="#e58139"] ;
461 -> 462 ;
463 [label="InsolationFlux[Earthflux] <= 272.4\ngini = 0.2\nsamples = 4\nvalue = [8, 1]\nclass = Not Candidate", fillcolor="#e89152"] ;
461 -> 463 ;
464 [label="gini = 0.0\nsamples = 1\nvalue = [0, 1]\nclass = Candidate", fillcolor="#399de5"] ;
463 -> 464 ;
465 [label="gini = 0.0\nsamples = 3\nvalue = [8, 0]\nclass = Not Candidate", fillcolor="#e58139"] ;
463 -> 465 ;
466 [label="EquilibriumTemperature[K <= 295.5\ngini = 0.24\nsamples = 70\nvalue = [14, 87]\nclass = Candidate", fillcolor="#59ade9"] ;
454 -> 466 ;
467 [label="gini = 0.0\nsamples = 2\nvalue = [2, 0]\nclass = Not Candidate", fillcolor="#e58139"] ;
466 -> 467 ;
468 [label="TransitDepth[ppm] <= 58.15\ngini = 0.21\nsamples = 68\nvalue = [12, 87]\nclass = Candidate", fillcolor="#54abe9"] ;
466 -> 468 ;
469 [label="gini = 0.0\nsamples = 1\nvalue = [2, 0]\nclass = Not Candidate", fillcolor="#e58139"] ;
468 -> 469 ;
470 [label="TransitEpoch[BKJD] <= 195.96\ngini = 0.18\nsamples = 67\nvalue = [10, 87]\nclass = Candidate", fillcolor="#50a8e8"] ;
468 -> 470 ;
471 [label="ImpactParameterLowerUnc <= -0.01\ngini = 0.16\nsamples = 65\nvalue = [8, 86]\nclass = Candidate", fillcolor="#4ba6e7"] ;
470 -> 471 ;
472 [label="StellarEffectiveTemperatureUpperUnc.[K] <= 186.0\ngini = 0.14\nsamples = 64\nvalue = [7, 86]\nclass = Candidate", fillcolor="#49a5e7"] ;
471 -> 472 ;
473 [label="TransitDepthLowerUnc.[ppm] <= -11.65\ngini = 0.11\nsamples = 59\nvalue = [5, 83]\nclass = Candidate", fillcolor="#45a3e7"] ;
472 -> 473 ;
474 [label="StellarEffectiveTemperature[K] <= 4861.5\ngini = 0.05\nsamples = 50\nvalue = [2, 73]\nclass = Candidate", fillcolor="#3ea0e6"] ;
473 -> 474 ;
475 [label="Dec[decimaldegrees] <= 40.8\ngini = 0.38\nsamples = 4\nvalue = [1, 3]\nclass = Candidate", fillcolor="#7bbeee"] ;
474 -> 475 ;
476 [label="gini = 0.0\nsamples = 1\nvalue = [1, 0]\nclass = Not Candidate", fillcolor="#e58139"] ;
475 -> 476 ;
477 [label="gini = 0.0\nsamples = 3\nvalue = [0, 3]\nclass = Candidate", fillcolor="#399de5"] ;
475 -> 477 ;
478 [label="TransitEpochLowerUnc.[BKJD] <= -0.0\ngini = 0.03\nsamples = 46\nvalue = [1, 70]\nclass = Candidate", fillcolor="#3c9ee5"] ;
474 -> 478 ;
479 [label="gini = 0.0\nsamples = 43\nvalue = [0, 66]\nclass = Candidate", fillcolor="#399de5"] ;
478 -> 479 ;
480 [label="TransitDepthLowerUnc.[ppm] <= -56.55\ngini = 0.32\nsamples = 3\nvalue = [1, 4]\nclass = Candidate", fillcolor="#6ab6ec"] ;
478 -> 480 ;
481 [label="gini = 0.0\nsamples = 2\nvalue = [0, 4]\nclass = Candidate", fillcolor="#399de5"] ;
480 -> 481 ;
482 [label="gini = 0.0\nsamples = 1\nvalue = [1, 0]\nclass = Not Candidate", fillcolor="#e58139"] ;
480 -> 482 ;
483 [label="StellarRadiusLowerUnc.[Solarradii] <= -0.07\ngini = 0.36\nsamples = 9\nvalue = [3, 10]\nclass = Candidate", fillcolor="#74baed"] ;
473 -> 483 ;
484 [label="StellarSurfaceGravityLowerUnc.[log10(cm/s**2)] <= -0.11\ngini = 0.17\nsamples = 8\nvalue = [1, 10]\nclass = Candidate", fillcolor="#4da7e8"] ;
483 -> 484 ;
485 [label="gini = 0.0\nsamples = 7\nvalue = [0, 10]\nclass = Candidate", fillcolor="#399de5"] ;
484 -> 485 ;
486 [label="gini = 0.0\nsamples = 1\nvalue = [1, 0]\nclass = Not Candidate", fillcolor="#e58139"] ;
484 -> 486 ;
487 [label="gini = 0.0\nsamples = 1\nvalue = [2, 0]\nclass = Not Candidate", fillcolor="#e58139"] ;
483 -> 487 ;
488 [label="TransitDurationLowerUnc.[hrs] <= -0.18\ngini = 0.48\nsamples = 5\nvalue = [2, 3]\nclass = Candidate", fillcolor="#bddef6"] ;
472 -> 488 ;
489 [label="gini = 0.0\nsamples = 2\nvalue = [2, 0]\nclass = Not Candidate", fillcolor="#e58139"] ;
488 -> 489 ;
490 [label="gini = 0.0\nsamples = 3\nvalue = [0, 3]\nclass = Candidate", fillcolor="#399de5"] ;
488 -> 490 ;
491 [label="gini = 0.0\nsamples = 1\nvalue = [1, 0]\nclass = Not Candidate", fillcolor="#e58139"] ;
471 -> 491 ;
492 [label="TransitDepth[ppm] <= 1830.0\ngini = 0.44\nsamples = 2\nvalue = [2, 1]\nclass = Not Candidate", fillcolor="#f2c09c"] ;
470 -> 492 ;
493 [label="gini = 0.0\nsamples = 1\nvalue = [2, 0]\nclass = Not Candidate", fillcolor="#e58139"] ;
492 -> 493 ;
494 [label="gini = 0.0\nsamples = 1\nvalue = [0, 1]\nclass = Candidate", fillcolor="#399de5"] ;
492 -> 494 ;
495 [label="gini = 0.0\nsamples = 3\nvalue = [8, 0]\nclass = Not Candidate", fillcolor="#e58139"] ;
303 -> 495 ;
496 [label="InsolationFlux[Earthflux] <= 192.42\ngini = 0.49\nsamples = 170\nvalue = [117, 144]\nclass = Candidate", fillcolor="#daedfa"] ;
298 -> 496 ;
497 [label="StellarEffectiveTemperature[K] <= 4549.0\ngini = 0.44\nsamples = 121\nvalue = [60, 122]\nclass = Candidate", fillcolor="#9acdf2"] ;
496 -> 497 ;
498 [label="OrbitalPeriodLowerUnc.[days] <= -0.0\ngini = 0.22\nsamples = 5\nvalue = [7, 1]\nclass = Not Candidate", fillcolor="#e99355"] ;
497 -> 498 ;
499 [label="gini = 0.0\nsamples = 1\nvalue = [0, 1]\nclass = Candidate", fillcolor="#399de5"] ;
498 -> 499 ;
500 [label="gini = 0.0\nsamples = 4\nvalue = [7, 0]\nclass = Not Candidate", fillcolor="#e58139"] ;
498 -> 500 ;
501 [label="PlanetaryRadiusLowerUnc.[Earthradii] <= -0.16\ngini = 0.42\nsamples = 116\nvalue = [53, 121]\nclass = Candidate", fillcolor="#90c8f0"] ;
497 -> 501 ;
502 [label="PlanetaryRadiusLowerUnc.[Earthradii] <= -2.05\ngini = 0.36\nsamples = 90\nvalue = [32, 106]\nclass = Candidate", fillcolor="#75bbed"] ;
501 -> 502 ;
503 [label="gini = 0.0\nsamples = 4\nvalue = [6, 0]\nclass = Not Candidate", fillcolor="#e58139"] ;
502 -> 503 ;
504 [label="TransitDepth[ppm] <= 80.9\ngini = 0.32\nsamples = 86\nvalue = [26, 106]\nclass = Candidate", fillcolor="#6ab5eb"] ;
502 -> 504 ;
505 [label="TransitEpochLowerUnc.[BKJD] <= -0.02\ngini = 0.38\nsamples = 3\nvalue = [3, 1]\nclass = Not Candidate", fillcolor="#eeab7b"] ;
504 -> 505 ;
506 [label="gini = 0.0\nsamples = 2\nvalue = [3, 0]\nclass = Not Candidate", fillcolor="#e58139"] ;
505 -> 506 ;
507 [label="gini = 0.0\nsamples = 1\nvalue = [0, 1]\nclass = Candidate", fillcolor="#399de5"] ;
505 -> 507 ;
508 [label="TransitDuration[hrs] <= 7.19\ngini = 0.29\nsamples = 83\nvalue = [23, 105]\nclass = Candidate", fillcolor="#64b2eb"] ;
504 -> 508 ;
509 [label="TransitDepthUpperUnc.[ppm] <= 14.05\ngini = 0.23\nsamples = 73\nvalue = [15, 96]\nclass = Candidate", fillcolor="#58ace9"] ;
508 -> 509 ;
510 [label="StellarEffectiveTemperatureLowerUnc.[K] <= -163.0\ngini = 0.44\nsamples = 5\nvalue = [4, 2]\nclass = Not Candidate", fillcolor="#f2c09c"] ;
509 -> 510 ;
511 [label="gini = 0.0\nsamples = 3\nvalue = [4, 0]\nclass = Not Candidate", fillcolor="#e58139"] ;
510 -> 511 ;
512 [label="gini = 0.0\nsamples = 2\nvalue = [0, 2]\nclass = Candidate", fillcolor="#399de5"] ;
510 -> 512 ;
513 [label="ImpactParameter <= 1.01\ngini = 0.19\nsamples = 68\nvalue = [11, 94]\nclass = Candidate", fillcolor="#50a8e8"] ;
509 -> 513 ;
514 [label="StellarEffectiveTemperatureLowerUnc.[K] <= -274.0\ngini = 0.16\nsamples = 66\nvalue = [9, 94]\nclass = Candidate", fillcolor="#4ca6e7"] ;
513 -> 514 ;
515 [label="gini = 0.0\nsamples = 1\nvalue = [2, 0]\nclass = Not Candidate", fillcolor="#e58139"] ;
514 -> 515 ;
516 [label="TransitEpochUpperUnc.[BKJD] <= 0.0\ngini = 0.13\nsamples = 65\nvalue = [7, 94]\nclass = Candidate", fillcolor="#48a4e7"] ;
514 -> 516 ;
517 [label="TransitEpochUpperUnc.[BKJD] <= 0.0\ngini = 0.5\nsamples = 2\nvalue = [1, 1]\nclass = Not Candidate", fillcolor="#ffffff"] ;
516 -> 517 ;
518 [label="gini = 0.0\nsamples = 1\nvalue = [0, 1]\nclass = Candidate", fillcolor="#399de5"] ;
517 -> 518 ;
519 [label="gini = 0.0\nsamples = 1\nvalue = [1, 0]\nclass = Not Candidate", fillcolor="#e58139"] ;
517 -> 519 ;
520 [label="TransitDepthLowerUnc.[ppm] <= -175.5\ngini = 0.11\nsamples = 63\nvalue = [6, 93]\nclass = Candidate", fillcolor="#46a3e7"] ;
516 -> 520 ;
521 [label="StellarSurfaceGravityLowerUnc.[log10(cm/s**2)] <= -0.12\ngini = 0.44\nsamples = 2\nvalue = [1, 2]\nclass = Candidate", fillcolor="#9ccef2"] ;
520 -> 521 ;
522 [label="gini = 0.0\nsamples = 1\nvalue = [1, 0]\nclass = Not Candidate", fillcolor="#e58139"] ;
521 -> 522 ;
523 [label="gini = 0.0\nsamples = 1\nvalue = [0, 2]\nclass = Candidate", fillcolor="#399de5"] ;
521 -> 523 ;
524 [label="TransitDuration[hrs] <= 3.7\ngini = 0.1\nsamples = 61\nvalue = [5, 91]\nclass = Candidate", fillcolor="#44a2e6"] ;
520 -> 524 ;
525 [label="TransitEpoch[BKJD] <= 133.8\ngini = 0.18\nsamples = 34\nvalue = [5, 46]\nclass = Candidate", fillcolor="#4fa8e8"] ;
524 -> 525 ;
526 [label="gini = 0.0\nsamples = 1\nvalue = [2, 0]\nclass = Not Candidate", fillcolor="#e58139"] ;
525 -> 526 ;
527 [label="Dec[decimaldegrees] <= 45.16\ngini = 0.11\nsamples = 33\nvalue = [3, 46]\nclass = Candidate", fillcolor="#46a3e7"] ;
525 -> 527 ;
528 [label="Dec[decimaldegrees] <= 44.76\ngini = 0.23\nsamples = 15\nvalue = [3, 20]\nclass = Candidate", fillcolor="#57ace9"] ;
527 -> 528 ;
529 [label="TransitDepthLowerUnc.[ppm] <= -16.8\ngini = 0.17\nsamples = 14\nvalue = [2, 20]\nclass = Candidate", fillcolor="#4da7e8"] ;
528 -> 529 ;
530 [label="InsolationFlux[Earthflux] <= 167.25\ngini = 0.09\nsamples = 13\nvalue = [1, 20]\nclass = Candidate", fillcolor="#43a2e6"] ;
529 -> 530 ;
531 [label="gini = 0.0\nsamples = 12\nvalue = [0, 20]\nclass = Candidate", fillcolor="#399de5"] ;
530 -> 531 ;
532 [label="gini = 0.0\nsamples = 1\nvalue = [1, 0]\nclass = Not Candidate", fillcolor="#e58139"] ;
530 -> 532 ;
533 [label="gini = 0.0\nsamples = 1\nvalue = [1, 0]\nclass = Not Candidate", fillcolor="#e58139"] ;
529 -> 533 ;
534 [label="gini = 0.0\nsamples = 1\nvalue = [1, 0]\nclass = Not Candidate", fillcolor="#e58139"] ;
528 -> 534 ;
535 [label="gini = 0.0\nsamples = 18\nvalue = [0, 26]\nclass = Candidate", fillcolor="#399de5"] ;
527 -> 535 ;
536 [label="gini = 0.0\nsamples = 27\nvalue = [0, 45]\nclass = Candidate", fillcolor="#399de5"] ;
524 -> 536 ;
537 [label="gini = 0.0\nsamples = 2\nvalue = [2, 0]\nclass = Not Candidate", fillcolor="#e58139"] ;
513 -> 537 ;
538 [label="TransitDepthUpperUnc.[ppm] <= 14.0\ngini = 0.5\nsamples = 10\nvalue = [8, 9]\nclass = Candidate", fillcolor="#e9f4fc"] ;
508 -> 538 ;
539 [label="gini = 0.0\nsamples = 4\nvalue = [0, 6]\nclass = Candidate", fillcolor="#399de5"] ;
538 -> 539 ;
540 [label="EquilibriumTemperature[K <= 400.5\ngini = 0.4\nsamples = 6\nvalue = [8, 3]\nclass = Not Candidate", fillcolor="#efb083"] ;
538 -> 540 ;
541 [label="gini = 0.0\nsamples = 1\nvalue = [0, 3]\nclass = Candidate", fillcolor="#399de5"] ;
540 -> 541 ;
542 [label="gini = 0.0\nsamples = 5\nvalue = [8, 0]\nclass = Not Candidate", fillcolor="#e58139"] ;
540 -> 542 ;
543 [label="TransitDurationLowerUnc.[hrs] <= -0.44\ngini = 0.49\nsamples = 26\nvalue = [21, 15]\nclass = Not Candidate", fillcolor="#f8dbc6"] ;
501 -> 543 ;
544 [label="StellarEffectiveTemperature[K] <= 6075.0\ngini = 0.12\nsamples = 10\nvalue = [15, 1]\nclass = Not Candidate", fillcolor="#e78946"] ;
543 -> 544 ;
545 [label="gini = 0.0\nsamples = 8\nvalue = [13, 0]\nclass = Not Candidate", fillcolor="#e58139"] ;
544 -> 545 ;
546 [label="InsolationFlux[Earthflux] <= 170.62\ngini = 0.44\nsamples = 2\nvalue = [2, 1]\nclass = Not Candidate", fillcolor="#f2c09c"] ;
544 -> 546 ;
547 [label="gini = 0.0\nsamples = 1\nvalue = [2, 0]\nclass = Not Candidate", fillcolor="#e58139"] ;
546 -> 547 ;
548 [label="gini = 0.0\nsamples = 1\nvalue = [0, 1]\nclass = Candidate", fillcolor="#399de5"] ;
546 -> 548 ;
549 [label="OrbitalPeriodLowerUnc.[days] <= -0.0\ngini = 0.42\nsamples = 16\nvalue = [6, 14]\nclass = Candidate", fillcolor="#8ec7f0"] ;
543 -> 549 ;
550 [label="ImpactParameterUpperUnc <= 0.2\ngini = 0.44\nsamples = 4\nvalue = [4, 2]\nclass = Not Candidate", fillcolor="#f2c09c"] ;
549 -> 550 ;
551 [label="gini = 0.0\nsamples = 1\nvalue = [0, 2]\nclass = Candidate", fillcolor="#399de5"] ;
550 -> 551 ;
552 [label="gini = 0.0\nsamples = 3\nvalue = [4, 0]\nclass = Not Candidate", fillcolor="#e58139"] ;
550 -> 552 ;
553 [label="StellarRadiusLowerUnc.[Solarradii] <= -0.1\ngini = 0.24\nsamples = 12\nvalue = [2, 12]\nclass = Candidate", fillcolor="#5aade9"] ;
549 -> 553 ;
554 [label="gini = 0.0\nsamples = 1\nvalue = [1, 0]\nclass = Not Candidate", fillcolor="#e58139"] ;
553 -> 554 ;
555 [label="Dec[decimaldegrees] <= 40.96\ngini = 0.14\nsamples = 11\nvalue = [1, 12]\nclass = Candidate", fillcolor="#49a5e7"] ;
553 -> 555 ;
556 [label="gini = 0.0\nsamples = 1\nvalue = [1, 0]\nclass = Not Candidate", fillcolor="#e58139"] ;
555 -> 556 ;
557 [label="gini = 0.0\nsamples = 10\nvalue = [0, 12]\nclass = Candidate", fillcolor="#399de5"] ;
555 -> 557 ;
558 [label="ImpactParameter <= 0.69\ngini = 0.4\nsamples = 49\nvalue = [57, 22]\nclass = Not Candidate", fillcolor="#efb285"] ;
496 -> 558 ;
559 [label="PlanetaryRadiusLowerUnc.[Earthradii] <= -0.33\ngini = 0.49\nsamples = 31\nvalue = [27, 20]\nclass = Not Candidate", fillcolor="#f8decc"] ;
558 -> 559 ;
560 [label="StellarEffectiveTemperatureUpperUnc.[K] <= 135.0\ngini = 0.3\nsamples = 7\nvalue = [2, 9]\nclass = Candidate", fillcolor="#65b3eb"] ;
559 -> 560 ;
561 [label="gini = 0.0\nsamples = 1\nvalue = [2, 0]\nclass = Not Candidate", fillcolor="#e58139"] ;
560 -> 561 ;
562 [label="gini = 0.0\nsamples = 6\nvalue = [0, 9]\nclass = Candidate", fillcolor="#399de5"] ;
560 -> 562 ;
563 [label="StellarRadius[Solarradii] <= 1.2\ngini = 0.42\nsamples = 24\nvalue = [25, 11]\nclass = Not Candidate", fillcolor="#f0b890"] ;
559 -> 563 ;
564 [label="TransitDuration[hrs] <= 2.23\ngini = 0.36\nsamples = 20\nvalue = [23, 7]\nclass = Not Candidate", fillcolor="#eda775"] ;
563 -> 564 ;
565 [label="OrbitalPeriod[days] <= 5.5\ngini = 0.44\nsamples = 6\nvalue = [2, 4]\nclass = Candidate", fillcolor="#9ccef2"] ;
564 -> 565 ;
566 [label="gini = 0.0\nsamples = 4\nvalue = [0, 4]\nclass = Candidate", fillcolor="#399de5"] ;
565 -> 566 ;
567 [label="gini = 0.0\nsamples = 2\nvalue = [2, 0]\nclass = Not Candidate", fillcolor="#e58139"] ;
565 -> 567 ;
568 [label="TransitSignal-to-Noise <= 9.35\ngini = 0.22\nsamples = 14\nvalue = [21, 3]\nclass = Not Candidate", fillcolor="#e99355"] ;
564 -> 568 ;
569 [label="StellarEffectiveTemperatureUpperUnc.[K] <= 182.0\ngini = 0.44\nsamples = 3\nvalue = [1, 2]\nclass = Candidate", fillcolor="#9ccef2"] ;
568 -> 569 ;
570 [label="gini = 0.0\nsamples = 2\nvalue = [0, 2]\nclass = Candidate", fillcolor="#399de5"] ;
569 -> 570 ;
571 [label="gini = 0.0\nsamples = 1\nvalue = [1, 0]\nclass = Not Candidate", fillcolor="#e58139"] ;
569 -> 571 ;
572 [label="OrbitalPeriod[days] <= 5.86\ngini = 0.09\nsamples = 11\nvalue = [20, 1]\nclass = Not Candidate", fillcolor="#e68743"] ;
568 -> 572 ;
573 [label="gini = 0.0\nsamples = 7\nvalue = [17, 0]\nclass = Not Candidate", fillcolor="#e58139"] ;
572 -> 573 ;
574 [label="PlanetaryRadius[Earthradii] <= 1.31\ngini = 0.38\nsamples = 4\nvalue = [3, 1]\nclass = Not Candidate", fillcolor="#eeab7b"] ;
572 -> 574 ;
575 [label="gini = 0.0\nsamples = 3\nvalue = [3, 0]\nclass = Not Candidate", fillcolor="#e58139"] ;
574 -> 575 ;
576 [label="gini = 0.0\nsamples = 1\nvalue = [0, 1]\nclass = Candidate", fillcolor="#399de5"] ;
574 -> 576 ;
577 [label="TransitDepthLowerUnc.[ppm] <= -9.45\ngini = 0.44\nsamples = 4\nvalue = [2, 4]\nclass = Candidate", fillcolor="#9ccef2"] ;
563 -> 577 ;
578 [label="gini = 0.0\nsamples = 2\nvalue = [2, 0]\nclass = Not Candidate", fillcolor="#e58139"] ;
577 -> 578 ;
579 [label="gini = 0.0\nsamples = 2\nvalue = [0, 4]\nclass = Candidate", fillcolor="#399de5"] ;
577 -> 579 ;
580 [label="ImpactParameterUpperUnc <= 6.45\ngini = 0.12\nsamples = 18\nvalue = [30, 2]\nclass = Not Candidate", fillcolor="#e78946"] ;
558 -> 580 ;
581 [label="StellarSurfaceGravityLowerUnc.[log10(cm/s**2)] <= -0.22\ngini = 0.06\nsamples = 17\nvalue = [30, 1]\nclass = Not Candidate", fillcolor="#e68540"] ;
580 -> 581 ;
582 [label="gini = 0.0\nsamples = 1\nvalue = [0, 1]\nclass = Candidate", fillcolor="#399de5"] ;
581 -> 582 ;
583 [label="gini = 0.0\nsamples = 16\nvalue = [30, 0]\nclass = Not Candidate", fillcolor="#e58139"] ;
581 -> 583 ;
584 [label="gini = 0.0\nsamples = 1\nvalue = [0, 1]\nclass = Candidate", fillcolor="#399de5"] ;
580 -> 584 ;
585 [label="InsolationFlux[Earthflux] <= 6.23\ngini = 0.25\nsamples = 45\nvalue = [58, 10]\nclass = Not Candidate", fillcolor="#e9975b"] ;
221 -> 585 ;
586 [label="TransitDurationLowerUnc.[hrs] <= -0.35\ngini = 0.46\nsamples = 7\nvalue = [4, 7]\nclass = Candidate", fillcolor="#aad5f4"] ;
585 -> 586 ;
587 [label="gini = 0.0\nsamples = 2\nvalue = [3, 0]\nclass = Not Candidate", fillcolor="#e58139"] ;
586 -> 587 ;
588 [label="TransitEpochUpperUnc.[BKJD] <= 0.0\ngini = 0.22\nsamples = 5\nvalue = [1, 7]\nclass = Candidate", fillcolor="#55abe9"] ;
586 -> 588 ;
589 [label="gini = 0.0\nsamples = 1\nvalue = [1, 0]\nclass = Not Candidate", fillcolor="#e58139"] ;
588 -> 589 ;
590 [label="gini = 0.0\nsamples = 4\nvalue = [0, 7]\nclass = Candidate", fillcolor="#399de5"] ;
588 -> 590 ;
591 [label="InsolationFlux[Earthflux] <= 18.12\ngini = 0.1\nsamples = 38\nvalue = [54, 3]\nclass = Not Candidate", fillcolor="#e68844"] ;
585 -> 591 ;
592 [label="StellarSurfaceGravityLowerUnc.[log10(cm/s**2)] <= -0.11\ngini = 0.38\nsamples = 8\nvalue = [9, 3]\nclass = Not Candidate", fillcolor="#eeab7b"] ;
591 -> 592 ;
593 [label="StellarEffectiveTemperature[K] <= 6078.0\ngini = 0.38\nsamples = 3\nvalue = [1, 3]\nclass = Candidate", fillcolor="#7bbeee"] ;
592 -> 593 ;
594 [label="gini = 0.0\nsamples = 2\nvalue = [0, 3]\nclass = Candidate", fillcolor="#399de5"] ;
593 -> 594 ;
595 [label="gini = 0.0\nsamples = 1\nvalue = [1, 0]\nclass = Not Candidate", fillcolor="#e58139"] ;
593 -> 595 ;
596 [label="gini = 0.0\nsamples = 5\nvalue = [8, 0]\nclass = Not Candidate", fillcolor="#e58139"] ;
592 -> 596 ;
597 [label="gini = 0.0\nsamples = 30\nvalue = [45, 0]\nclass = Not Candidate", fillcolor="#e58139"] ;
591 -> 597 ;
598 [label="InsolationFluxUpperUnc.[Earthflux] <= 1735.39\ngini = 0.29\nsamples = 532\nvalue = [667, 142]\nclass = Not Candidate", fillcolor="#eb9c63"] ;
2 -> 598 ;
599 [label="OrbitalPeriodUpperUnc.[days] <= 0.0\ngini = 0.41\nsamples = 237\nvalue = [255, 105]\nclass = Not Candidate", fillcolor="#f0b58b"] ;
598 -> 599 ;
600 [label="TransitDuration[hrs] <= 1.79\ngini = 0.39\nsamples = 223\nvalue = [251, 90]\nclass = Not Candidate", fillcolor="#eeae80"] ;
599 -> 600 ;
601 [label="PlanetaryRadiusUpperUnc.[Earthradii] <= 0.11\ngini = 0.49\nsamples = 83\nvalue = [71, 51]\nclass = Not Candidate", fillcolor="#f8dcc7"] ;
600 -> 601 ;
602 [label="TransitDurationLowerUnc.[hrs] <= -0.18\ngini = 0.09\nsamples = 14\nvalue = [20, 1]\nclass = Not Candidate", fillcolor="#e68743"] ;
601 -> 602 ;
603 [label="TransitDepth[ppm] <= 54.2\ngini = 0.28\nsamples = 5\nvalue = [5, 1]\nclass = Not Candidate", fillcolor="#ea9a61"] ;
602 -> 603 ;
604 [label="gini = 0.0\nsamples = 3\nvalue = [4, 0]\nclass = Not Candidate", fillcolor="#e58139"] ;
603 -> 604 ;
605 [label="TransitDurationUpperUnc.[hrs] <= 0.19\ngini = 0.5\nsamples = 2\nvalue = [1, 1]\nclass = Not Candidate", fillcolor="#ffffff"] ;
603 -> 605 ;
606 [label="gini = 0.0\nsamples = 1\nvalue = [0, 1]\nclass = Candidate", fillcolor="#399de5"] ;
605 -> 606 ;
607 [label="gini = 0.0\nsamples = 1\nvalue = [1, 0]\nclass = Not Candidate", fillcolor="#e58139"] ;
605 -> 607 ;
608 [label="gini = 0.0\nsamples = 9\nvalue = [15, 0]\nclass = Not Candidate", fillcolor="#e58139"] ;
602 -> 608 ;
609 [label="TransitEpochUpperUnc.[BKJD] <= 0.0\ngini = 0.5\nsamples = 69\nvalue = [51, 50]\nclass = Not Candidate", fillcolor="#fefdfb"] ;
601 -> 609 ;
610 [label="StellarSurfaceGravityUpperUnc.[log10(cm/s**2)] <= 0.12\ngini = 0.44\nsamples = 45\nvalue = [43, 21]\nclass = Not Candidate", fillcolor="#f2bf9a"] ;
609 -> 610 ;
611 [label="TransitDurationLowerUnc.[hrs] <= -0.07\ngini = 0.41\nsamples = 42\nvalue = [43, 17]\nclass = Not Candidate", fillcolor="#efb387"] ;
610 -> 611 ;
612 [label="EquilibriumTemperature[K <= 1455.0\ngini = 0.07\nsamples = 18\nvalue = [26, 1]\nclass = Not Candidate", fillcolor="#e68641"] ;
611 -> 612 ;
613 [label="StellarRadiusLowerUnc.[Solarradii] <= -0.14\ngini = 0.5\nsamples = 2\nvalue = [1, 1]\nclass = Not Candidate", fillcolor="#ffffff"] ;
612 -> 613 ;
614 [label="gini = 0.0\nsamples = 1\nvalue = [1, 0]\nclass = Not Candidate", fillcolor="#e58139"] ;
613 -> 614 ;
615 [label="gini = 0.0\nsamples = 1\nvalue = [0, 1]\nclass = Candidate", fillcolor="#399de5"] ;
613 -> 615 ;
616 [label="gini = 0.0\nsamples = 16\nvalue = [25, 0]\nclass = Not Candidate", fillcolor="#e58139"] ;
612 -> 616 ;
617 [label="PlanetaryRadiusUpperUnc.[Earthradii] <= 0.31\ngini = 0.5\nsamples = 24\nvalue = [17, 16]\nclass = Not Candidate", fillcolor="#fdf8f3"] ;
611 -> 617 ;
618 [label="Dec[decimaldegrees] <= 45.49\ngini = 0.42\nsamples = 13\nvalue = [5, 12]\nclass = Candidate", fillcolor="#8bc6f0"] ;
617 -> 618 ;
619 [label="StellarSurfaceGravity[log10(cm/s**2)] <= 4.61\ngini = 0.44\nsamples = 5\nvalue = [4, 2]\nclass = Not Candidate", fillcolor="#f2c09c"] ;
618 -> 619 ;
620 [label="gini = 0.0\nsamples = 2\nvalue = [0, 2]\nclass = Candidate", fillcolor="#399de5"] ;
619 -> 620 ;
621 [label="gini = 0.0\nsamples = 3\nvalue = [4, 0]\nclass = Not Candidate", fillcolor="#e58139"] ;
619 -> 621 ;
622 [label="ImpactParameterLowerUnc <= -0.61\ngini = 0.17\nsamples = 8\nvalue = [1, 10]\nclass = Candidate", fillcolor="#4da7e8"] ;
618 -> 622 ;
623 [label="gini = 0.0\nsamples = 1\nvalue = [1, 0]\nclass = Not Candidate", fillcolor="#e58139"] ;
622 -> 623 ;
624 [label="gini = 0.0\nsamples = 7\nvalue = [0, 10]\nclass = Candidate", fillcolor="#399de5"] ;
622 -> 624 ;
625 [label="StellarSurfaceGravityLowerUnc.[log10(cm/s**2)] <= -0.2\ngini = 0.38\nsamples = 11\nvalue = [12, 4]\nclass = Not Candidate", fillcolor="#eeab7b"] ;
617 -> 625 ;
626 [label="EquilibriumTemperature[K <= 1422.5\ngini = 0.32\nsamples = 4\nvalue = [1, 4]\nclass = Candidate", fillcolor="#6ab6ec"] ;
625 -> 626 ;
627 [label="gini = 0.0\nsamples = 2\nvalue = [0, 3]\nclass = Candidate", fillcolor="#399de5"] ;
626 -> 627 ;
628 [label="Kepler-band[mag] <= 14.84\ngini = 0.5\nsamples = 2\nvalue = [1, 1]\nclass = Not Candidate", fillcolor="#ffffff"] ;
626 -> 628 ;
629 [label="gini = 0.0\nsamples = 1\nvalue = [1, 0]\nclass = Not Candidate", fillcolor="#e58139"] ;
628 -> 629 ;
630 [label="gini = 0.0\nsamples = 1\nvalue = [0, 1]\nclass = Candidate", fillcolor="#399de5"] ;
628 -> 630 ;
631 [label="gini = 0.0\nsamples = 7\nvalue = [11, 0]\nclass = Not Candidate", fillcolor="#e58139"] ;
625 -> 631 ;
632 [label="gini = 0.0\nsamples = 3\nvalue = [0, 4]\nclass = Candidate", fillcolor="#399de5"] ;
610 -> 632 ;
633 [label="StellarSurfaceGravityLowerUnc.[log10(cm/s**2)] <= -0.23\ngini = 0.34\nsamples = 24\nvalue = [8, 29]\nclass = Candidate", fillcolor="#70b8ec"] ;
609 -> 633 ;
634 [label="gini = 0.0\nsamples = 3\nvalue = [3, 0]\nclass = Not Candidate", fillcolor="#e58139"] ;
633 -> 634 ;
635 [label="ImpactParameter <= 0.76\ngini = 0.25\nsamples = 21\nvalue = [5, 29]\nclass = Candidate", fillcolor="#5baee9"] ;
633 -> 635 ;
636 [label="Kepler-band[mag] <= 15.78\ngini = 0.17\nsamples = 20\nvalue = [3, 29]\nclass = Candidate", fillcolor="#4da7e8"] ;
635 -> 636 ;
637 [label="TransitDurationLowerUnc.[hrs] <= -0.24\ngini = 0.12\nsamples = 19\nvalue = [2, 29]\nclass = Candidate", fillcolor="#47a4e7"] ;
636 -> 637 ;
638 [label="gini = 0.0\nsamples = 1\nvalue = [1, 0]\nclass = Not Candidate", fillcolor="#e58139"] ;
637 -> 638 ;
639 [label="TransitEpoch[BKJD] <= 131.58\ngini = 0.06\nsamples = 18\nvalue = [1, 29]\nclass = Candidate", fillcolor="#40a0e6"] ;
637 -> 639 ;
640 [label="TransitSignal-to-Noise <= 12.95\ngini = 0.44\nsamples = 3\nvalue = [1, 2]\nclass = Candidate", fillcolor="#9ccef2"] ;
639 -> 640 ;
641 [label="gini = 0.0\nsamples = 2\nvalue = [0, 2]\nclass = Candidate", fillcolor="#399de5"] ;
640 -> 641 ;
642 [label="gini = 0.0\nsamples = 1\nvalue = [1, 0]\nclass = Not Candidate", fillcolor="#e58139"] ;
640 -> 642 ;
643 [label="gini = 0.0\nsamples = 15\nvalue = [0, 27]\nclass = Candidate", fillcolor="#399de5"] ;
639 -> 643 ;
644 [label="gini = 0.0\nsamples = 1\nvalue = [1, 0]\nclass = Not Candidate", fillcolor="#e58139"] ;
636 -> 644 ;
645 [label="gini = 0.0\nsamples = 1\nvalue = [2, 0]\nclass = Not Candidate", fillcolor="#e58139"] ;
635 -> 645 ;
646 [label="StellarRadius[Solarradii] <= 0.9\ngini = 0.29\nsamples = 140\nvalue = [180, 39]\nclass = Not Candidate", fillcolor="#eb9c64"] ;
600 -> 646 ;
647 [label="gini = 0.0\nsamples = 57\nvalue = [86, 0]\nclass = Not Candidate", fillcolor="#e58139"] ;
646 -> 647 ;
648 [label="TransitDepthLowerUnc.[ppm] <= -12.45\ngini = 0.41\nsamples = 83\nvalue = [94, 39]\nclass = Not Candidate", fillcolor="#f0b58b"] ;
646 -> 648 ;
649 [label="RA[decimaldegrees] <= 288.14\ngini = 0.5\nsamples = 15\nvalue = [13, 14]\nclass = Candidate", fillcolor="#f1f8fd"] ;
648 -> 649 ;
650 [label="gini = 0.0\nsamples = 2\nvalue = [0, 5]\nclass = Candidate", fillcolor="#399de5"] ;
649 -> 650 ;
651 [label="StellarEffectiveTemperatureUpperUnc.[K] <= 178.0\ngini = 0.48\nsamples = 13\nvalue = [13, 9]\nclass = Not Candidate", fillcolor="#f7d8c2"] ;
649 -> 651 ;
652 [label="TransitSignal-to-Noise <= 8.6\ngini = 0.3\nsamples = 8\nvalue = [2, 9]\nclass = Candidate", fillcolor="#65b3eb"] ;
651 -> 652 ;
653 [label="gini = 0.0\nsamples = 1\nvalue = [1, 0]\nclass = Not Candidate", fillcolor="#e58139"] ;
652 -> 653 ;
654 [label="PlanetaryRadius[Earthradii] <= 4.52\ngini = 0.18\nsamples = 7\nvalue = [1, 9]\nclass = Candidate", fillcolor="#4fa8e8"] ;
652 -> 654 ;
655 [label="gini = 0.0\nsamples = 6\nvalue = [0, 9]\nclass = Candidate", fillcolor="#399de5"] ;
654 -> 655 ;
656 [label="gini = 0.0\nsamples = 1\nvalue = [1, 0]\nclass = Not Candidate", fillcolor="#e58139"] ;
654 -> 656 ;
657 [label="gini = 0.0\nsamples = 5\nvalue = [11, 0]\nclass = Not Candidate", fillcolor="#e58139"] ;
651 -> 657 ;
658 [label="ImpactParameterLowerUnc <= -0.27\ngini = 0.36\nsamples = 68\nvalue = [81, 25]\nclass = Not Candidate", fillcolor="#eda876"] ;
648 -> 658 ;
659 [label="TransitEpochLowerUnc.[BKJD] <= -0.0\ngini = 0.15\nsamples = 38\nvalue = [56, 5]\nclass = Not Candidate", fillcolor="#e78c4b"] ;
658 -> 659 ;
660 [label="EquilibriumTemperature[K <= 1353.0\ngini = 0.12\nsamples = 37\nvalue = [56, 4]\nclass = Not Candidate", fillcolor="#e78a47"] ;
659 -> 660 ;
661 [label="ImpactParameterUpperUnc <= 0.16\ngini = 0.42\nsamples = 7\nvalue = [7, 3]\nclass = Not Candidate", fillcolor="#f0b78e"] ;
660 -> 661 ;
662 [label="OrbitalPeriodUpperUnc.[days] <= 0.0\ngini = 0.38\nsamples = 4\nvalue = [1, 3]\nclass = Candidate", fillcolor="#7bbeee"] ;
661 -> 662 ;
663 [label="gini = 0.0\nsamples = 3\nvalue = [0, 3]\nclass = Candidate", fillcolor="#399de5"] ;
662 -> 663 ;
664 [label="gini = 0.0\nsamples = 1\nvalue = [1, 0]\nclass = Not Candidate", fillcolor="#e58139"] ;
662 -> 664 ;
665 [label="gini = 0.0\nsamples = 3\nvalue = [6, 0]\nclass = Not Candidate", fillcolor="#e58139"] ;
661 -> 665 ;
666 [label="RA[decimaldegrees] <= 282.11\ngini = 0.04\nsamples = 30\nvalue = [49, 1]\nclass = Not Candidate", fillcolor="#e6843d"] ;
660 -> 666 ;
667 [label="gini = 0.0\nsamples = 1\nvalue = [0, 1]\nclass = Candidate", fillcolor="#399de5"] ;
666 -> 667 ;
668 [label="gini = 0.0\nsamples = 29\nvalue = [49, 0]\nclass = Not Candidate", fillcolor="#e58139"] ;
666 -> 668 ;
669 [label="gini = 0.0\nsamples = 1\nvalue = [0, 1]\nclass = Candidate", fillcolor="#399de5"] ;
659 -> 669 ;
670 [label="EquilibriumTemperature[K <= 1597.5\ngini = 0.49\nsamples = 30\nvalue = [25, 20]\nclass = Not Candidate", fillcolor="#fae6d7"] ;
658 -> 670 ;
671 [label="StellarEffectiveTemperatureUpperUnc.[K] <= 184.5\ngini = 0.46\nsamples = 25\nvalue = [25, 14]\nclass = Not Candidate", fillcolor="#f4c8a8"] ;
670 -> 671 ;
672 [label="ImpactParameterUpperUnc <= 0.45\ngini = 0.4\nsamples = 21\nvalue = [24, 9]\nclass = Not Candidate", fillcolor="#efb083"] ;
671 -> 672 ;
673 [label="OrbitalPeriodUpperUnc.[days] <= 0.0\ngini = 0.25\nsamples = 17\nvalue = [23, 4]\nclass = Not Candidate", fillcolor="#ea975b"] ;
672 -> 673 ;
674 [label="gini = 0.0\nsamples = 2\nvalue = [0, 3]\nclass = Candidate", fillcolor="#399de5"] ;
673 -> 674 ;
675 [label="TransitDuration[hrs] <= 2.44\ngini = 0.08\nsamples = 15\nvalue = [23, 1]\nclass = Not Candidate", fillcolor="#e68642"] ;
673 -> 675 ;
676 [label="Dec[decimaldegrees] <= 38.22\ngini = 0.32\nsamples = 4\nvalue = [4, 1]\nclass = Not Candidate", fillcolor="#eca06a"] ;
675 -> 676 ;
677 [label="gini = 0.0\nsamples = 1\nvalue = [0, 1]\nclass = Candidate", fillcolor="#399de5"] ;
676 -> 677 ;
678 [label="gini = 0.0\nsamples = 3\nvalue = [4, 0]\nclass = Not Candidate", fillcolor="#e58139"] ;
676 -> 678 ;
679 [label="gini = 0.0\nsamples = 11\nvalue = [19, 0]\nclass = Not Candidate", fillcolor="#e58139"] ;
675 -> 679 ;
680 [label="TransitSignal-to-Noise <= 13.4\ngini = 0.28\nsamples = 4\nvalue = [1, 5]\nclass = Candidate", fillcolor="#61b1ea"] ;
672 -> 680 ;
681 [label="gini = 0.0\nsamples = 3\nvalue = [0, 5]\nclass = Candidate", fillcolor="#399de5"] ;
680 -> 681 ;
682 [label="gini = 0.0\nsamples = 1\nvalue = [1, 0]\nclass = Not Candidate", fillcolor="#e58139"] ;
680 -> 682 ;
683 [label="TransitDepthUpperUnc.[ppm] <= 4.35\ngini = 0.28\nsamples = 4\nvalue = [1, 5]\nclass = Candidate", fillcolor="#61b1ea"] ;
671 -> 683 ;
684 [label="gini = 0.0\nsamples = 1\nvalue = [1, 0]\nclass = Not Candidate", fillcolor="#e58139"] ;
683 -> 684 ;
685 [label="gini = 0.0\nsamples = 3\nvalue = [0, 5]\nclass = Candidate", fillcolor="#399de5"] ;
683 -> 685 ;
686 [label="gini = 0.0\nsamples = 5\nvalue = [0, 6]\nclass = Candidate", fillcolor="#399de5"] ;
670 -> 686 ;
687 [label="TransitEpochLowerUnc.[BKJD] <= -0.06\ngini = 0.33\nsamples = 14\nvalue = [4, 15]\nclass = Candidate", fillcolor="#6eb7ec"] ;
599 -> 687 ;
688 [label="EquilibriumTemperature[K <= 1553.0\ngini = 0.38\nsamples = 2\nvalue = [3, 1]\nclass = Not Candidate", fillcolor="#eeab7b"] ;
687 -> 688 ;
689 [label="gini = 0.0\nsamples = 1\nvalue = [0, 1]\nclass = Candidate", fillcolor="#399de5"] ;
688 -> 689 ;
690 [label="gini = 0.0\nsamples = 1\nvalue = [3, 0]\nclass = Not Candidate", fillcolor="#e58139"] ;
688 -> 690 ;
691 [label="ImpactParameterLowerUnc <= -0.01\ngini = 0.12\nsamples = 12\nvalue = [1, 14]\nclass = Candidate", fillcolor="#47a4e7"] ;
687 -> 691 ;
692 [label="gini = 0.0\nsamples = 10\nvalue = [0, 13]\nclass = Candidate", fillcolor="#399de5"] ;
691 -> 692 ;
693 [label="TransitDurationUpperUnc.[hrs] <= 10.46\ngini = 0.5\nsamples = 2\nvalue = [1, 1]\nclass = Not Candidate", fillcolor="#ffffff"] ;
691 -> 693 ;
694 [label="gini = 0.0\nsamples = 1\nvalue = [0, 1]\nclass = Candidate", fillcolor="#399de5"] ;
693 -> 694 ;
695 [label="gini = 0.0\nsamples = 1\nvalue = [1, 0]\nclass = Not Candidate", fillcolor="#e58139"] ;
693 -> 695 ;
696 [label="OrbitalPeriodUpperUnc.[days] <= 0.0\ngini = 0.15\nsamples = 295\nvalue = [412, 37]\nclass = Not Candidate", fillcolor="#e78c4b"] ;
598 -> 696 ;
697 [label="OrbitalPeriod[days] <= 0.38\ngini = 0.13\nsamples = 283\nvalue = [401, 30]\nclass = Not Candidate", fillcolor="#e78a48"] ;
696 -> 697 ;
698 [label="TransitDurationUpperUnc.[hrs] <= 0.04\ngini = 0.38\nsamples = 3\nvalue = [1, 3]\nclass = Candidate", fillcolor="#7bbeee"] ;
697 -> 698 ;
699 [label="gini = 0.0\nsamples = 2\nvalue = [0, 3]\nclass = Candidate", fillcolor="#399de5"] ;
698 -> 699 ;
700 [label="gini = 0.0\nsamples = 1\nvalue = [1, 0]\nclass = Not Candidate", fillcolor="#e58139"] ;
698 -> 700 ;
701 [label="TransitDepthUpperUnc.[ppm] <= 3.35\ngini = 0.12\nsamples = 280\nvalue = [400, 27]\nclass = Not Candidate", fillcolor="#e78a46"] ;
697 -> 701 ;
702 [label="gini = 0.0\nsamples = 76\nvalue = [116, 0]\nclass = Not Candidate", fillcolor="#e58139"] ;
701 -> 702 ;
703 [label="InsolationFlux[Earthflux] <= 1665.86\ngini = 0.16\nsamples = 204\nvalue = [284, 27]\nclass = Not Candidate", fillcolor="#e78d4c"] ;
701 -> 703 ;
704 [label="gini = 0.0\nsamples = 2\nvalue = [0, 3]\nclass = Candidate", fillcolor="#399de5"] ;
703 -> 704 ;
705 [label="TransitDuration[hrs] <= 2.02\ngini = 0.14\nsamples = 202\nvalue = [284, 24]\nclass = Not Candidate", fillcolor="#e78c4a"] ;
703 -> 705 ;
706 [label="TransitDepthLowerUnc.[ppm] <= -3.55\ngini = 0.23\nsamples = 101\nvalue = [128, 19]\nclass = Not Candidate", fillcolor="#e99456"] ;
705 -> 706 ;
707 [label="Kepler-band[mag] <= 15.75\ngini = 0.2\nsamples = 99\nvalue = [128, 16]\nclass = Not Candidate", fillcolor="#e89152"] ;
706 -> 707 ;
708 [label="TransitEpochUpperUnc.[BKJD] <= 0.0\ngini = 0.15\nsamples = 90\nvalue = [123, 11]\nclass = Not Candidate", fillcolor="#e78c4b"] ;
707 -> 708 ;
709 [label="StellarEffectiveTemperatureLowerUnc.[K] <= -149.5\ngini = 0.02\nsamples = 52\nvalue = [81, 1]\nclass = Not Candidate", fillcolor="#e5833b"] ;
708 -> 709 ;
710 [label="gini = 0.0\nsamples = 48\nvalue = [77, 0]\nclass = Not Candidate", fillcolor="#e58139"] ;
709 -> 710 ;
711 [label="RA[decimaldegrees] <= 295.77\ngini = 0.32\nsamples = 4\nvalue = [4, 1]\nclass = Not Candidate", fillcolor="#eca06a"] ;
709 -> 711 ;
712 [label="gini = 0.0\nsamples = 3\nvalue = [4, 0]\nclass = Not Candidate", fillcolor="#e58139"] ;
711 -> 712 ;
713 [label="gini = 0.0\nsamples = 1\nvalue = [0, 1]\nclass = Candidate", fillcolor="#399de5"] ;
711 -> 713 ;
714 [label="ImpactParameterUpperUnc <= 0.01\ngini = 0.31\nsamples = 38\nvalue = [42, 10]\nclass = Not Candidate", fillcolor="#eb9f68"] ;
708 -> 714 ;
715 [label="gini = 0.0\nsamples = 1\nvalue = [0, 1]\nclass = Candidate", fillcolor="#399de5"] ;
714 -> 715 ;
716 [label="InsolationFluxLowerUnc.[Earthflux] <= -1079.49\ngini = 0.29\nsamples = 37\nvalue = [42, 9]\nclass = Not Candidate", fillcolor="#eb9c63"] ;
714 -> 716 ;
717 [label="OrbitalPeriodLowerUnc.[days] <= -0.0\ngini = 0.11\nsamples = 23\nvalue = [31, 2]\nclass = Not Candidate", fillcolor="#e78946"] ;
716 -> 717 ;
718 [label="RA[decimaldegrees] <= 291.19\ngini = 0.48\nsamples = 3\nvalue = [3, 2]\nclass = Not Candidate", fillcolor="#f6d5bd"] ;
717 -> 718 ;
719 [label="gini = 0.0\nsamples = 1\nvalue = [0, 2]\nclass = Candidate", fillcolor="#399de5"] ;
718 -> 719 ;
720 [label="gini = 0.0\nsamples = 2\nvalue = [3, 0]\nclass = Not Candidate", fillcolor="#e58139"] ;
718 -> 720 ;
721 [label="gini = 0.0\nsamples = 20\nvalue = [28, 0]\nclass = Not Candidate", fillcolor="#e58139"] ;
717 -> 721 ;
722 [label="ImpactParameterLowerUnc <= -0.34\ngini = 0.48\nsamples = 14\nvalue = [11, 7]\nclass = Not Candidate", fillcolor="#f6d1b7"] ;
716 -> 722 ;
723 [label="gini = 0.0\nsamples = 6\nvalue = [9, 0]\nclass = Not Candidate", fillcolor="#e58139"] ;
722 -> 723 ;
724 [label="OrbitalPeriodUpperUnc.[days] <= 0.0\ngini = 0.35\nsamples = 8\nvalue = [2, 7]\nclass = Candidate", fillcolor="#72b9ec"] ;
722 -> 724 ;
725 [label="StellarSurfaceGravityUpperUnc.[log10(cm/s**2)] <= 0.05\ngini = 0.22\nsamples = 7\nvalue = [1, 7]\nclass = Candidate", fillcolor="#55abe9"] ;
724 -> 725 ;
726 [label="gini = 0.0\nsamples = 1\nvalue = [1, 0]\nclass = Not Candidate", fillcolor="#e58139"] ;
725 -> 726 ;
727 [label="gini = 0.0\nsamples = 6\nvalue = [0, 7]\nclass = Candidate", fillcolor="#399de5"] ;
725 -> 727 ;
728 [label="gini = 0.0\nsamples = 1\nvalue = [1, 0]\nclass = Not Candidate", fillcolor="#e58139"] ;
724 -> 728 ;
729 [label="ImpactParameterUpperUnc <= 0.42\ngini = 0.5\nsamples = 9\nvalue = [5, 5]\nclass = Not Candidate", fillcolor="#ffffff"] ;
707 -> 729 ;
730 [label="StellarSurfaceGravityLowerUnc.[log10(cm/s**2)] <= -0.18\ngini = 0.41\nsamples = 7\nvalue = [5, 2]\nclass = Not Candidate", fillcolor="#efb388"] ;
729 -> 730 ;
731 [label="gini = 0.0\nsamples = 4\nvalue = [4, 0]\nclass = Not Candidate", fillcolor="#e58139"] ;
730 -> 731 ;
732 [label="StellarEffectiveTemperature[K] <= 5627.0\ngini = 0.44\nsamples = 3\nvalue = [1, 2]\nclass = Candidate", fillcolor="#9ccef2"] ;
730 -> 732 ;
733 [label="gini = 0.0\nsamples = 2\nvalue = [0, 2]\nclass = Candidate", fillcolor="#399de5"] ;
732 -> 733 ;
734 [label="gini = 0.0\nsamples = 1\nvalue = [1, 0]\nclass = Not Candidate", fillcolor="#e58139"] ;
732 -> 734 ;
735 [label="gini = 0.0\nsamples = 2\nvalue = [0, 3]\nclass = Candidate", fillcolor="#399de5"] ;
729 -> 735 ;
736 [label="gini = 0.0\nsamples = 2\nvalue = [0, 3]\nclass = Candidate", fillcolor="#399de5"] ;
706 -> 736 ;
737 [label="StellarSurfaceGravity[log10(cm/s**2)] <= 4.0\ngini = 0.06\nsamples = 101\nvalue = [156, 5]\nclass = Not Candidate", fillcolor="#e6853f"] ;
705 -> 737 ;
738 [label="ImpactParameterLowerUnc <= -0.25\ngini = 0.23\nsamples = 21\nvalue = [26, 4]\nclass = Not Candidate", fillcolor="#e99457"] ;
737 -> 738 ;
739 [label="StellarEffectiveTemperature[K] <= 6957.0\ngini = 0.09\nsamples = 14\nvalue = [21, 1]\nclass = Not Candidate", fillcolor="#e68742"] ;
738 -> 739 ;
740 [label="gini = 0.0\nsamples = 12\nvalue = [20, 0]\nclass = Not Candidate", fillcolor="#e58139"] ;
739 -> 740 ;
741 [label="InsolationFluxUpperUnc.[Earthflux] <= 33131.91\ngini = 0.5\nsamples = 2\nvalue = [1, 1]\nclass = Not Candidate", fillcolor="#ffffff"] ;
739 -> 741 ;
742 [label="gini = 0.0\nsamples = 1\nvalue = [0, 1]\nclass = Candidate", fillcolor="#399de5"] ;
741 -> 742 ;
743 [label="gini = 0.0\nsamples = 1\nvalue = [1, 0]\nclass = Not Candidate", fillcolor="#e58139"] ;
741 -> 743 ;
744 [label="ImpactParameterLowerUnc <= -0.11\ngini = 0.47\nsamples = 7\nvalue = [5, 3]\nclass = Not Candidate", fillcolor="#f5cdb0"] ;
738 -> 744 ;
745 [label="StellarRadiusLowerUnc.[Solarradii] <= -1.12\ngini = 0.38\nsamples = 4\nvalue = [1, 3]\nclass = Candidate", fillcolor="#7bbeee"] ;
744 -> 745 ;
746 [label="gini = 0.0\nsamples = 1\nvalue = [1, 0]\nclass = Not Candidate", fillcolor="#e58139"] ;
745 -> 746 ;
747 [label="gini = 0.0\nsamples = 3\nvalue = [0, 3]\nclass = Candidate", fillcolor="#399de5"] ;
745 -> 747 ;
748 [label="gini = 0.0\nsamples = 3\nvalue = [4, 0]\nclass = Not Candidate", fillcolor="#e58139"] ;
744 -> 748 ;
749 [label="OrbitalPeriodUpperUnc.[days] <= 0.0\ngini = 0.02\nsamples = 80\nvalue = [130, 1]\nclass = Not Candidate", fillcolor="#e5823b"] ;
737 -> 749 ;
750 [label="PlanetaryRadiusUpperUnc.[Earthradii] <= 1.06\ngini = 0.17\nsamples = 7\nvalue = [10, 1]\nclass = Not Candidate", fillcolor="#e88e4d"] ;
749 -> 750 ;
751 [label="gini = 0.0\nsamples = 5\nvalue = [9, 0]\nclass = Not Candidate", fillcolor="#e58139"] ;
750 -> 751 ;
752 [label="InsolationFluxUpperUnc.[Earthflux] <= 3024.99\ngini = 0.5\nsamples = 2\nvalue = [1, 1]\nclass = Not Candidate", fillcolor="#ffffff"] ;
750 -> 752 ;
753 [label="gini = 0.0\nsamples = 1\nvalue = [1, 0]\nclass = Not Candidate", fillcolor="#e58139"] ;
752 -> 753 ;
754 [label="gini = 0.0\nsamples = 1\nvalue = [0, 1]\nclass = Candidate", fillcolor="#399de5"] ;
752 -> 754 ;
755 [label="gini = 0.0\nsamples = 73\nvalue = [120, 0]\nclass = Not Candidate", fillcolor="#e58139"] ;
749 -> 755 ;
756 [label="ImpactParameterUpperUnc <= 0.29\ngini = 0.48\nsamples = 12\nvalue = [11, 7]\nclass = Not Candidate", fillcolor="#f6d1b7"] ;
696 -> 756 ;
757 [label="RA[decimaldegrees] <= 290.26\ngini = 0.18\nsamples = 9\nvalue = [9, 1]\nclass = Not Candidate", fillcolor="#e88f4f"] ;
756 -> 757 ;
758 [label="StellarEffectiveTemperatureUpperUnc.[K] <= 176.5\ngini = 0.5\nsamples = 2\nvalue = [1, 1]\nclass = Not Candidate", fillcolor="#ffffff"] ;
757 -> 758 ;
759 [label="gini = 0.0\nsamples = 1\nvalue = [1, 0]\nclass = Not Candidate", fillcolor="#e58139"] ;
758 -> 759 ;
760 [label="gini = 0.0\nsamples = 1\nvalue = [0, 1]\nclass = Candidate", fillcolor="#399de5"] ;
